{"learner":{"attributes":{"best_iteration":"399","best_ntree_limit":"400","scikit_learn":"{\"n_estimators\": 400, \"objective\": \"reg:squarederror\", \"max_depth\": null, \"max_leaves\": null, \"max_bin\": null, \"grow_policy\": null, \"learning_rate\": 0.01, \"verbosity\": null, \"booster\": null, \"tree_method\": null, \"gamma\": null, \"min_child_weight\": null, \"max_delta_step\": null, \"subsample\": null, \"sampling_method\": null, \"colsample_bytree\": null, \"colsample_bylevel\": null, \"colsample_bynode\": null, \"reg_alpha\": null, \"reg_lambda\": null, \"scale_pos_weight\": null, \"base_score\": null, \"missing\": NaN, \"num_parallel_tree\": null, \"random_state\": 1, \"n_jobs\": null, \"monotone_constraints\": null, \"interaction_constraints\": null, \"importance_type\": null, \"gpu_id\": null, \"validate_parameters\": null, \"predictor\": null, \"enable_categorical\": false, \"max_cat_to_onehot\": null, \"eval_metric\": null, \"early_stopping_rounds\": null, \"callbacks\": null, \"_estimator_type\": \"regressor\"}"},"feature_names":[],"feature_types":[],"gradient_booster":{"model":{"gbtree_model_param":{"num_parallel_tree":"1","num_trees":"400","size_leaf_vector":"0"},"tree_info":[0,0,0,0,0,0,0,0,0,0,0,0,0,0,0,0,0,0,0,0,0,0,0,0,0,0,0,0,0,0,0,0,0,0,0,0,0,0,0,0,0,0,0,0,0,0,0,0,0,0,0,0,0,0,0,0,0,0,0,0,0,0,0,0,0,0,0,0,0,0,0,0,0,0,0,0,0,0,0,0,0,0,0,0,0,0,0,0,0,0,0,0,0,0,0,0,0,0,0,0,0,0,0,0,0,0,0,0,0,0,0,0,0,0,0,0,0,0,0,0,0,0,0,0,0,0,0,0,0,0,0,0,0,0,0,0,0,0,0,0,0,0,0,0,0,0,0,0,0,0,0,0,0,0,0,0,0,0,0,0,0,0,0,0,0,0,0,0,0,0,0,0,0,0,0,0,0,0,0,0,0,0,0,0,0,0,0,0,0,0,0,0,0,0,0,0,0,0,0,0,0,0,0,0,0,0,0,0,0,0,0,0,0,0,0,0,0,0,0,0,0,0,0,0,0,0,0,0,0,0,0,0,0,0,0,0,0,0,0,0,0,0,0,0,0,0,0,0,0,0,0,0,0,0,0,0,0,0,0,0,0,0,0,0,0,0,0,0,0,0,0,0,0,0,0,0,0,0,0,0,0,0,0,0,0,0,0,0,0,0,0,0,0,0,0,0,0,0,0,0,0,0,0,0,0,0,0,0,0,0,0,0,0,0,0,0,0,0,0,0,0,0,0,0,0,0,0,0,0,0,0,0,0,0,0,0,0,0,0,0,0,0,0,0,0,0,0,0,0,0,0,0,0,0,0,0,0,0,0,0,0,0,0,0,0,0,0,0,0,0,0,0,0,0,0,0,0,0,0,0,0,0,0,0,0,0,0,0,0,0,0,0,0,0,0,0,0,0,0,0],"trees":[{"base_weights":[-1.7048094E-2,-2.257026E-1,5.0213164E-1,-2.7274093E-1,-1.0491634E-1,2.973312E-1,8.030442E-1,-3.3082733E-1,-2.4045274E-1,-1.4474368E-1,3.6985017E-3,1.9467305E-1,3.7670842E-1,6.180375E-1,1.0116659E0,-2.563984E-1,-1.9842017E-1,-6.4046495E-2,-1.4942908E-1,-3.773309E-2,7.904E-2,6.1315E-2,2.0445405E-1,-1.15476005E-1,4.5121014E-2,-2.554506E-3,-4.0995497E-2,1.1729E-1,3.0592501E-2,7.7773333E-3,4.9519002E-2],"categories":[],"categories_nodes":[],"categories_segments":[],"categories_sizes":[],"default_left":[1,1,1,1,1,1,1,0,1,1,1,1,0,0,0,0,0,1,0,1,1,0,0,0,0,0,0,0,1,0,0],"id":0,"left_children":[1,3,5,7,9,11,13,-1,15,17,19,21,-1,-1,-1,-1,-1,23,-1,25,27,-1,-1,-1,-1,-1,-1,-1,29,-1,-1],"loss_changes":[2.9470543E1,1.0736132E0,4.568136E0,1.8114662E-1,2.4278241E-1,3.1780338E-1,5.712433E-1,0E0,1.145792E-2,5.931616E-3,5.2926715E-2,1.7464519E-2,0E0,0E0,0E0,0E0,0E0,2.7668122E-2,0E0,1.157714E-3,7.5305067E-3,0E0,0E0,0E0,0E0,0E0,0E0,0E0,1.3421194E-3,0E0,0E0],"parents":[2147483647,0,0,1,1,2,2,3,3,4,4,5,5,6,6,8,8,9,9,10,10,11,11,17,17,19,19,20,20,28,28],"right_children":[2,4,6,8,10,12,14,-1,16,18,20,22,-1,-1,-1,-1,-1,24,-1,26,28,-1,-1,-1,-1,-1,-1,-1,30,-1,-1],"split_conditions":[6.20348E-1,3.18276E-1,1.036564E0,2.0471099E-1,4.382865E-1,7.84565E-1,1.262841E0,-3.3082732E-3,2.7291548E-1,2.803185E-1,5.837225E-1,6.169085E-1,3.767084E-3,6.180375E-3,1.0116659E-2,-2.5639841E-3,-1.9842016E-3,3.642045E-1,-1.4942908E-3,4.540545E-1,6.3278854E-1,6.1315E-4,2.0445404E-3,-1.15476E-3,4.5121013E-4,-2.554506E-5,-4.0995496E-4,1.1729E-3,5.919725E-1,7.777333E-5,4.9519003E-4],"split_indices":[0,0,0,0,0,0,0,0,0,1,1,1,0,0,0,0,0,0,0,0,1,0,0,0,0,0,0,0,0,0,0],"split_type":[0,0,0,0,0,0,0,0,0,0,0,0,0,0,0,0,0,0,0,0,0,0,0,0,0,0,0,0,0,0,0],"sum_hessian":[2.7E2,1.93E2,7.7E1,1.38E2,5.5E1,4.7E1,3E1,4.6E1,9.2E1,4E1,1.5E1,2.2E1,2.5E1,1.8E1,1.2E1,6.3E1,2.9E1,3E0,3.7E1,1E1,5E0,2E0,2E1,2E0,1E0,1E0,9E0,2E0,3E0,2E0,1E0],"tree_param":{"num_deleted":"0","num_feature":"2","num_nodes":"31","size_leaf_vector":"0"}},{"base_weights":[-1.6826032E-2,-2.2349064E-1,4.9740165E-1,-2.7007005E-1,-1.0388303E-1,2.9449177E-1,7.955395E-1,-3.2758945E-1,-2.380971E-1,-1.4334986E-1,3.7434157E-3,1.9284184E-1,3.7308624E-1,6.1218244E-1,1.0023276E0,-2.538745E-1,-1.965021E-1,-6.358192E-2,-1.4797412E-1,-3.7395343E-2,7.854057E-2,6.090623E-2,2.0250686E-1,-1.14706166E-1,4.489541E-2,-2.5417358E-3,-4.0626533E-2,1.1650807E-1,3.042981E-2,7.725477E-3,4.9271405E-2],"categories":[],"categories_nodes":[],"categories_segments":[],"categories_sizes":[],"default_left":[1,1,1,1,1,1,1,0,1,1,1,1,0,0,0,0,0,1,0,1,1,0,0,0,0,0,0,0,1,0,0],"id":1,"left_children":[1,3,5,7,9,11,13,-1,15,17,19,21,-1,-1,-1,-1,-1,23,-1,25,27,-1,-1,-1,-1,-1,-1,-1,29,-1,-1],"loss_changes":[2.8911057E1,1.0527658E0,4.4843407E0,1.7763138E-1,2.3840642E-1,3.1153107E-1,5.6179047E-1,0E0,1.1145592E-2,5.715072E-3,5.2170053E-2,1.6994715E-2,0E0,0E0,0E0,0E0,0E0,2.733307E-2,0E0,1.1355411E-3,7.4145496E-3,0E0,0E0,0E0,0E0,0E0,0E0,0E0,1.3304984E-3,0E0,0E0],"parents":[2147483647,0,0,1,1,2,2,3,3,4,4,5,5,6,6,8,8,9,9,10,10,11,11,17,17,19,19,20,20,28,28],"right_children":[2,4,6,8,10,12,14,-1,16,18,20,22,-1,-1,-1,-1,-1,24,-1,26,28,-1,-1,-1,-1,-1,-1,-1,30,-1,-1],"split_conditions":[6.20348E-1,3.18276E-1,1.036564E0,2.0471099E-1,4.382865E-1,7.84565E-1,1.262841E0,-3.2758946E-3,2.7291548E-1,2.803185E-1,5.837225E-1,6.169085E-1,3.7308624E-3,6.121824E-3,1.0023275E-2,-2.538745E-3,-1.965021E-3,3.642045E-1,-1.4797412E-3,4.540545E-1,6.3278854E-1,6.090623E-4,2.0250685E-3,-1.1470616E-3,4.489541E-4,-2.5417357E-5,-4.0626532E-4,1.1650806E-3,5.919725E-1,7.725477E-5,4.9271405E-4],"split_indices":[0,0,0,0,0,0,0,0,0,1,1,1,0,0,0,0,0,0,0,0,1,0,0,0,0,0,0,0,0,0,0],"split_type":[0,0,0,0,0,0,0,0,0,0,0,0,0,0,0,0,0,0,0,0,0,0,0,0,0,0,0,0,0,0,0],"sum_hessian":[2.7E2,1.93E2,7.7E1,1.38E2,5.5E1,4.7E1,3E1,4.6E1,9.2E1,4E1,1.5E1,2.2E1,2.5E1,1.8E1,1.2E1,6.3E1,2.9E1,3E0,3.7E1,1E1,5E0,2E0,2E1,2E0,1E0,1E0,9E0,2E0,3E0,2E0,1E0],"tree_param":{"num_deleted":"0","num_feature":"2","num_nodes":"31","size_leaf_vector":"0"}},{"base_weights":[-1.660664E-2,-2.2130035E-1,4.9271625E-1,-2.674253E-1,-1.0285981E-1,2.9167947E-1,7.8810495E-1,-3.2438323E-1,-2.3576456E-1,-1.4196947E-1,3.787443E-3,1.9102795E-1,3.694989E-1,6.0638285E-1,9.930753E-1,-2.5137544E-1,-1.9460258E-1,-6.3120626E-2,-1.4653331E-1,-3.7060633E-2,7.804435E-2,6.0500205E-2,2.0057821E-1,-1.1394146E-1,4.467094E-2,-2.529025E-3,-4.0260892E-2,1.15731336E-1,3.0268013E-2,7.673979E-3,4.902506E-2],"categories":[],"categories_nodes":[],"categories_segments":[],"categories_sizes":[],"default_left":[1,1,1,1,1,1,1,0,1,1,1,1,0,0,0,0,0,1,0,1,1,0,0,0,0,0,0,0,1,0,0],"id":2,"left_children":[1,3,5,7,9,11,13,-1,15,17,19,21,-1,-1,-1,-1,-1,23,-1,25,27,-1,-1,-1,-1,-1,-1,-1,29,-1,-1],"loss_changes":[2.8362194E1,1.0323277E0,4.4020767E0,1.7418575E-1,2.341103E-1,3.0538225E-1,5.5249214E-1,0E0,1.0840893E-2,5.5047274E-3,5.14244E-2,1.6536176E-2,0E0,0E0,0E0,0E0,0E0,2.7002102E-2,0E0,1.113791E-3,7.3003173E-3,0E0,0E0,0E0,0E0,0E0,0E0,0E0,1.3189723E-3,0E0,0E0],"parents":[2147483647,0,0,1,1,2,2,3,3,4,4,5,5,6,6,8,8,9,9,10,10,11,11,17,17,19,19,20,20,28,28],"right_children":[2,4,6,8,10,12,14,-1,16,18,20,22,-1,-1,-1,-1,-1,24,-1,26,28,-1,-1,-1,-1,-1,-1,-1,30,-1,-1],"split_conditions":[6.20348E-1,3.18276E-1,1.036564E0,2.0471099E-1,4.382865E-1,7.84565E-1,1.262841E0,-3.2438322E-3,2.7291548E-1,2.803185E-1,5.837225E-1,6.169085E-1,3.694989E-3,6.0638282E-3,9.930753E-3,-2.5137544E-3,-1.9460258E-3,3.642045E-1,-1.465333E-3,4.540545E-1,6.3278854E-1,6.0500205E-4,2.005782E-3,-1.1394146E-3,4.467094E-4,-2.529025E-5,-4.0260892E-4,1.1573134E-3,5.919725E-1,7.673979E-5,4.902506E-4],"split_indices":[0,0,0,0,0,0,0,0,0,1,1,1,0,0,0,0,0,0,0,0,1,0,0,0,0,0,0,0,0,0,0],"split_type":[0,0,0,0,0,0,0,0,0,0,0,0,0,0,0,0,0,0,0,0,0,0,0,0,0,0,0,0,0,0,0],"sum_hessian":[2.7E2,1.93E2,7.7E1,1.38E2,5.5E1,4.7E1,3E1,4.6E1,9.2E1,4E1,1.5E1,2.2E1,2.5E1,1.8E1,1.2E1,6.3E1,2.9E1,3E0,3.7E1,1E1,5E0,2E0,2E1,2E0,1E0,1E0,9E0,2E0,3E0,2E0,1E0],"tree_param":{"num_deleted":"0","num_feature":"2","num_nodes":"31","size_leaf_vector":"0"}},{"base_weights":[-1.6389888E-2,-2.1913148E-1,4.88075E-1,-2.6480648E-1,-1.01846606E-1,2.8889406E-1,7.8073984E-1,-3.2120842E-1,-2.3345487E-1,-1.4060242E-1,3.8305968E-3,1.9651656E-1,3.7308332E-1,6.0063815E-1,9.839085E-1,-2.4890094E-1,-1.9272143E-1,-6.266261E-2,-1.4510655E-1,-3.6728933E-2,7.7551305E-2,6.009688E-2,2.0576623E-1,-1.1318186E-1,4.444757E-2,-2.516374E-3,-3.9898552E-2,1.1495981E-1,3.0107096E-2,7.622838E-3,4.8779935E-2],"categories":[],"categories_nodes":[],"categories_segments":[],"categories_sizes":[],"default_left":[1,1,1,1,1,1,1,0,1,1,1,1,0,0,0,0,0,1,0,1,1,0,0,0,0,0,0,0,1,0,0],"id":3,"left_children":[1,3,5,7,9,11,13,-1,15,17,19,21,-1,-1,-1,-1,-1,23,-1,25,27,-1,-1,-1,-1,-1,-1,-1,29,-1,-1],"loss_changes":[2.7823751E1,1.0122852E0,4.3213253E0,1.7080498E-1,2.2989261E-1,2.9998827E-1,5.433483E-1,0E0,1.0544777E-2,5.300343E-3,5.0689615E-2,1.918006E-2,0E0,0E0,0E0,0E0,0E0,2.6675163E-2,0E0,1.0924488E-3,7.1877986E-3,0E0,0E0,0E0,0E0,0E0,0E0,0E0,1.307538E-3,0E0,0E0],"parents":[2147483647,0,0,1,1,2,2,3,3,4,4,5,5,6,6,8,8,9,9,10,10,11,11,17,17,19,19,20,20,28,28],"right_children":[2,4,6,8,10,12,14,-1,16,18,20,22,-1,-1,-1,-1,-1,24,-1,26,28,-1,-1,-1,-1,-1,-1,-1,30,-1,-1],"split_conditions":[6.20348E-1,3.18276E-1,1.036564E0,2.0471099E-1,4.382865E-1,7.919365E-1,1.262841E0,-3.212084E-3,2.7291548E-1,2.803185E-1,5.837225E-1,6.169085E-1,3.730833E-3,6.0063815E-3,9.839085E-3,-2.4890094E-3,-1.9272142E-3,3.642045E-1,-1.4510655E-3,4.540545E-1,6.3278854E-1,6.009688E-4,2.0576622E-3,-1.1318185E-3,4.444757E-4,-2.516374E-5,-3.9898552E-4,1.1495982E-3,5.919725E-1,7.622838E-5,4.8779935E-4],"split_indices":[0,0,0,0,0,0,0,0,0,1,1,1,0,0,0,0,0,0,0,0,1,0,0,0,0,0,0,0,0,0,0],"split_type":[0,0,0,0,0,0,0,0,0,0,0,0,0,0,0,0,0,0,0,0,0,0,0,0,0,0,0,0,0,0,0],"sum_hessian":[2.7E2,1.93E2,7.7E1,1.38E2,5.5E1,4.7E1,3E1,4.6E1,9.2E1,4E1,1.5E1,2.4E1,2.3E1,1.8E1,1.2E1,6.3E1,2.9E1,3E0,3.7E1,1E1,5E0,2E0,2.2E1,2E0,1E0,1E0,9E0,2E0,3E0,2E0,1E0],"tree_param":{"num_deleted":"0","num_feature":"2","num_nodes":"31","size_leaf_vector":"0"}},{"base_weights":[-1.6175218E-2,-2.1698387E-1,4.8347932E-1,-2.622133E-1,-1.0084329E-1,2.861382E-1,7.7344364E-1,-3.180647E-1,-2.3116781E-1,-1.3924855E-1,3.8728863E-3,1.9465773E-1,3.6950794E-1,5.9494793E-1,9.748263E-1,-2.4645083E-1,-1.9085844E-1,-6.220781E-2,-1.4369366E-1,-3.64002E-2,7.706139E-2,5.9696216E-2,2.0379803E-1,-1.124273E-1,4.4225335E-2,-2.5037974E-3,-3.953946E-2,1.1419342E-1,2.9947028E-2,7.5720153E-3,4.8536032E-2],"categories":[],"categories_nodes":[],"categories_segments":[],"categories_sizes":[],"default_left":[1,1,1,1,1,1,1,0,1,1,1,1,0,0,0,0,0,1,0,1,1,0,0,0,0,0,0,0,1,0,0],"id":4,"left_children":[1,3,5,7,9,11,13,-1,15,17,19,21,-1,-1,-1,-1,-1,23,-1,25,27,-1,-1,-1,-1,-1,-1,-1,29,-1,-1],"loss_changes":[2.729568E1,9.926338E-1,4.241995E0,1.6749096E-1,2.2575176E-1,2.9415417E-1,5.3435135E-1,0E0,1.0255337E-2,5.1018E-3,4.9965482E-2,1.8673718E-2,0E0,0E0,0E0,0E0,0E0,2.6352208E-2,0E0,1.0715071E-3,7.0769563E-3,0E0,0E0,0E0,0E0,0E0,0E0,0E0,1.2962015E-3,0E0,0E0],"parents":[2147483647,0,0,1,1,2,2,3,3,4,4,5,5,6,6,8,8,9,9,10,10,11,11,17,17,19,19,20,20,28,28],"right_children":[2,4,6,8,10,12,14,-1,16,18,20,22,-1,-1,-1,-1,-1,24,-1,26,28,-1,-1,-1,-1,-1,-1,-1,30,-1,-1],"split_conditions":[6.20348E-1,3.18276E-1,1.036564E0,2.0471099E-1,4.382865E-1,7.919365E-1,1.262841E0,-3.1806468E-3,2.7291548E-1,2.803185E-1,5.837225E-1,6.169085E-1,3.6950794E-3,5.949479E-3,9.748262E-3,-2.4645082E-3,-1.9085844E-3,3.642045E-1,-1.4369366E-3,4.540545E-1,6.3278854E-1,5.9696217E-4,2.0379801E-3,-1.1242729E-3,4.4225334E-4,-2.5037974E-5,-3.953946E-4,1.1419342E-3,5.919725E-1,7.572015E-5,4.853603E-4],"split_indices":[0,0,0,0,0,0,0,0,0,1,1,1,0,0,0,0,0,0,0,0,1,0,0,0,0,0,0,0,0,0,0],"split_type":[0,0,0,0,0,0,0,0,0,0,0,0,0,0,0,0,0,0,0,0,0,0,0,0,0,0,0,0,0,0,0],"sum_hessian":[2.7E2,1.93E2,7.7E1,1.38E2,5.5E1,4.7E1,3E1,4.6E1,9.2E1,4E1,1.5E1,2.4E1,2.3E1,1.8E1,1.2E1,6.3E1,2.9E1,3E0,3.7E1,1E1,5E0,2E0,2.2E1,2E0,1E0,1E0,9E0,2E0,3E0,2E0,1E0],"tree_param":{"num_deleted":"0","num_feature":"2","num_nodes":"31","size_leaf_vector":"0"}},{"base_weights":[-1.5963145E-2,-2.1485728E-1,4.789269E-1,-2.596455E-1,-9.984978E-2,2.834087E-1,7.6621556E-1,-3.149517E-1,-2.2890316E-1,-1.3790773E-1,3.914321E-3,1.8556559E-1,3.5906187E-1,5.8931154E-1,9.658278E-1,-2.4402483E-1,-1.8901348E-1,-6.1756246E-2,-1.4229453E-1,-3.6074426E-2,7.657463E-2,5.929826E-2,1.9476733E-1,-1.11677796E-1,4.4004202E-2,-2.4912804E-3,-3.918361E-2,1.1343215E-1,2.9787838E-2,7.5215497E-3,4.8293352E-2],"categories":[],"categories_nodes":[],"categories_segments":[],"categories_sizes":[],"default_left":[1,1,1,1,1,1,1,0,1,1,1,1,0,0,0,0,0,1,0,1,1,0,0,0,0,0,0,0,1,0,0],"id":5,"left_children":[1,3,5,7,9,11,13,-1,15,17,19,21,-1,-1,-1,-1,-1,23,-1,25,27,-1,-1,-1,-1,-1,-1,-1,29,-1,-1],"loss_changes":[2.6777628E1,9.7336483E-1,4.164118E0,1.6424084E-1,2.2168654E-1,2.8867316E-1,5.2550507E-1,0E0,9.973526E-3,4.9089193E-3,4.9251903E-2,1.5173793E-2,0E0,0E0,0E0,0E0,0E0,2.6033197E-2,0E0,1.0509603E-3,6.967772E-3,0E0,0E0,0E0,0E0,0E0,0E0,0E0,1.2849553E-3,0E0,0E0],"parents":[2147483647,0,0,1,1,2,2,3,3,4,4,5,5,6,6,8,8,9,9,10,10,11,11,17,17,19,19,20,20,28,28],"right_children":[2,4,6,8,10,12,14,-1,16,18,20,22,-1,-1,-1,-1,-1,24,-1,26,28,-1,-1,-1,-1,-1,-1,-1,30,-1,-1],"split_conditions":[6.20348E-1,3.18276E-1,1.036564E0,2.0471099E-1,4.382865E-1,7.84565E-1,1.262841E0,-3.1495169E-3,2.7291548E-1,2.803185E-1,5.837225E-1,6.169085E-1,3.5906185E-3,5.8931154E-3,9.658278E-3,-2.4402482E-3,-1.8901348E-3,3.642045E-1,-1.4229452E-3,4.540545E-1,6.3278854E-1,5.929826E-4,1.9476733E-3,-1.1167779E-3,4.40042E-4,-2.4912804E-5,-3.9183607E-4,1.1343214E-3,5.919725E-1,7.5215496E-5,4.829335E-4],"split_indices":[0,0,0,0,0,0,0,0,0,1,1,1,0,0,0,0,0,0,0,0,1,0,0,0,0,0,0,0,0,0,0],"split_type":[0,0,0,0,0,0,0,0,0,0,0,0,0,0,0,0,0,0,0,0,0,0,0,0,0,0,0,0,0,0,0],"sum_hessian":[2.7E2,1.93E2,7.7E1,1.38E2,5.5E1,4.7E1,3E1,4.6E1,9.2E1,4E1,1.5E1,2.2E1,2.5E1,1.8E1,1.2E1,6.3E1,2.9E1,3E0,3.7E1,1E1,5E0,2E0,2E1,2E0,1E0,1E0,9E0,2E0,3E0,2E0,1E0],"tree_param":{"num_deleted":"0","num_feature":"2","num_nodes":"31","size_leaf_vector":"0"}},{"base_weights":[-1.5754152E-2,-2.1275151E-1,4.744156E-1,-2.5710285E-1,-9.8866E-2,2.8070232E-1,7.59055E-1,-3.092567E-1,-2.2527179E-1,-1.3657987E-1,3.9549116E-3,1.9092369E-1,3.6252582E-1,5.837286E-1,9.569125E-1,-2.4030936E-1,-1.8718636E-1,-6.130787E-2,-1.4090903E-1,-3.5751563E-2,7.609096E-2,5.890292E-2,1.9984275E-1,-1.10933274E-1,4.378417E-2,-2.478823E-3,-3.8830955E-2,1.1267593E-1,2.9629499E-2,7.4714026E-3,4.8051894E-2],"categories":[],"categories_nodes":[],"categories_segments":[],"categories_sizes":[],"default_left":[1,1,1,1,1,1,1,0,1,1,1,1,0,0,0,0,0,1,0,1,1,0,0,0,0,0,0,0,1,0,0],"id":6,"left_children":[1,3,5,7,9,11,13,-1,15,17,19,21,-1,-1,-1,-1,-1,23,-1,25,27,-1,-1,-1,-1,-1,-1,-1,29,-1,-1],"loss_changes":[2.6269276E1,9.544697E-1,4.0877304E0,1.6108894E-1,2.176956E-1,2.8339338E-1,5.1680183E-1,0E0,6.5612793E-3,4.721582E-3,4.854866E-2,1.766622E-2,0E0,0E0,0E0,0E0,0E0,2.571806E-2,0E0,1.0308027E-3,6.860215E-3,0E0,0E0,0E0,0E0,0E0,0E0,0E0,1.273806E-3,0E0,0E0],"parents":[2147483647,0,0,1,1,2,2,3,3,4,4,5,5,6,6,8,8,9,9,10,10,11,11,17,17,19,19,20,20,28,28],"right_children":[2,4,6,8,10,12,14,-1,16,18,20,22,-1,-1,-1,-1,-1,24,-1,26,28,-1,-1,-1,-1,-1,-1,-1,30,-1,-1],"split_conditions":[6.20348E-1,3.18276E-1,1.036564E0,2.09384E-1,4.382865E-1,7.919365E-1,1.262841E0,-3.092567E-3,2.7291548E-1,2.803185E-1,5.837225E-1,6.169085E-1,3.625258E-3,5.837286E-3,9.569125E-3,-2.4030935E-3,-1.8718636E-3,3.642045E-1,-1.4090902E-3,4.540545E-1,6.3278854E-1,5.8902916E-4,1.9984276E-3,-1.1093327E-3,4.378417E-4,-2.478823E-5,-3.8830953E-4,1.1267592E-3,5.919725E-1,7.471402E-5,4.8051894E-4],"split_indices":[0,0,0,0,0,0,0,0,0,1,1,1,0,0,0,0,0,0,0,0,1,0,0,0,0,0,0,0,0,0,0],"split_type":[0,0,0,0,0,0,0,0,0,0,0,0,0,0,0,0,0,0,0,0,0,0,0,0,0,0,0,0,0,0,0],"sum_hessian":[2.7E2,1.93E2,7.7E1,1.38E2,5.5E1,4.7E1,3E1,4.9E1,8.9E1,4E1,1.5E1,2.4E1,2.3E1,1.8E1,1.2E1,6E1,2.9E1,3E0,3.7E1,1E1,5E0,2E0,2.2E1,2E0,1E0,1E0,9E0,2E0,3E0,2E0,1E0],"tree_param":{"num_deleted":"0","num_feature":"2","num_nodes":"31","size_leaf_vector":"0"}},{"base_weights":[-1.5547023E-2,-2.1066616E-1,4.6994862E-1,-2.5458485E-1,-9.789184E-2,2.7802473E-1,7.5196147E-1,-3.0975792E-1,-2.2487691E-1,-1.3526483E-1,3.994679E-3,1.8911795E-1,3.590516E-1,5.7819855E-1,9.4807947E-1,-2.4550349E-1,-1.9470344E-1,-6.0862668E-2,-1.3953704E-1,-3.543159E-2,7.561039E-2,5.8510244E-2,1.9793122E-1,-1.9663876E-1,-5.670999E-2,-1.1019372E-1,4.3565243E-2,-2.4664253E-3,-3.8481463E-2,1.11924745E-1,2.9472023E-2,7.4216127E-3,4.7811627E-2],"categories":[],"categories_nodes":[],"categories_segments":[],"categories_sizes":[],"default_left":[1,1,1,1,1,1,1,0,1,1,1,1,0,0,0,0,1,1,0,1,1,0,0,0,0,0,0,0,0,0,1,0,0],"id":7,"left_children":[1,3,5,7,9,11,13,-1,15,17,19,21,-1,-1,-1,-1,23,25,-1,27,29,-1,-1,-1,-1,-1,-1,-1,-1,-1,31,-1,-1],"loss_changes":[2.5770693E1,9.3594074E-1,4.0126877E0,1.5817451E-1,2.1377736E-1,2.7788115E-1,5.0823975E-1,0E0,1.0703087E-2,4.5396686E-3,4.7855638E-2,1.719606E-2,0E0,0E0,0E0,0E0,3.322363E-4,2.5406772E-2,0E0,1.0110242E-3,6.7542605E-3,0E0,0E0,0E0,0E0,0E0,0E0,0E0,0E0,0E0,1.2627437E-3,0E0,0E0],"parents":[2147483647,0,0,1,1,2,2,3,3,4,4,5,5,6,6,8,8,9,9,10,10,11,11,16,16,17,17,19,19,20,20,30,30],"right_children":[2,4,6,8,10,12,14,-1,16,18,20,22,-1,-1,-1,-1,24,26,-1,28,30,-1,-1,-1,-1,-1,-1,-1,-1,-1,32,-1,-1],"split_conditions":[6.20348E-1,3.18276E-1,1.036564E0,2.044015E-1,4.382865E-1,7.919365E-1,1.262841E0,-3.097579E-3,2.52491E-1,2.803185E-1,5.837225E-1,6.169085E-1,3.5905158E-3,5.7819854E-3,9.480795E-3,-2.4550348E-3,3.77381E-1,3.642045E-1,-1.3953703E-3,4.540545E-1,6.3278854E-1,5.851024E-4,1.9793122E-3,-1.9663875E-3,-5.670999E-4,-1.1019371E-3,4.3565242E-4,-2.4664252E-5,-3.8481463E-4,1.1192474E-3,5.919725E-1,7.421613E-5,4.7811627E-4],"split_indices":[0,0,0,0,0,0,0,0,0,1,1,1,0,0,0,0,1,0,0,0,1,0,0,0,0,0,0,0,0,0,0,0,0],"split_type":[0,0,0,0,0,0,0,0,0,0,0,0,0,0,0,0,0,0,0,0,0,0,0,0,0,0,0,0,0,0,0,0,0],"sum_hessian":[2.7E2,1.93E2,7.7E1,1.38E2,5.5E1,4.7E1,3E1,4.5E1,9.3E1,4E1,1.5E1,2.4E1,2.3E1,1.8E1,1.2E1,5.1E1,4.2E1,3E0,3.7E1,1E1,5E0,2E0,2.2E1,4.1E1,1E0,2E0,1E0,1E0,9E0,2E0,3E0,2E0,1E0],"tree_param":{"num_deleted":"0","num_feature":"2","num_nodes":"33","size_leaf_vector":"0"}},{"base_weights":[-1.5345307E-2,-2.086053E-1,4.6552372E-1,-2.5209716E-1,-9.6927196E-2,2.753727E-1,7.449342E-1,-3.0672768E-1,-2.2268121E-1,-1.3396245E-1,4.033612E-3,1.8025939E-1,3.4892017E-1,5.999645E-1,9.8937416E-1,-2.4309567E-1,-1.9281532E-1,-6.042061E-2,-1.3817838E-1,-3.51145E-2,7.5132884E-2,5.812019E-2,1.8912408E-1,-1.947192E-1,-5.6426436E-2,-1.09459095E-1,4.334742E-2,-2.4540871E-3,-3.8135134E-2,1.1117858E-1,2.9315397E-2,7.372141E-3,4.7572583E-2],"categories":[],"categories_nodes":[],"categories_segments":[],"categories_sizes":[],"default_left":[1,1,1,1,1,1,1,0,1,1,1,1,0,0,0,0,1,1,0,1,1,0,0,0,0,0,0,0,0,0,1,0,0],"id":8,"left_children":[1,3,5,7,9,11,13,-1,15,17,19,21,-1,-1,-1,-1,23,25,-1,27,29,-1,-1,-1,-1,-1,-1,-1,-1,-1,31,-1,-1],"loss_changes":[2.5281885E1,9.1784E-1,3.9390202E0,1.5507126E-1,2.0993048E-1,2.7288008E-1,5.0494003E-1,0E0,1.0438919E-2,4.3631196E-3,4.717269E-2,1.391077E-2,0E0,0E0,0E0,0E0,1.783371E-4,2.5099274E-2,0E0,9.916192E-4,6.6498965E-3,0E0,0E0,0E0,0E0,0E0,0E0,0E0,0E0,0E0,1.2517765E-3,0E0,0E0],"parents":[2147483647,0,0,1,1,2,2,3,3,4,4,5,5,6,6,8,8,9,9,10,10,11,11,16,16,17,17,19,19,20,20,30,30],"right_children":[2,4,6,8,10,12,14,-1,16,18,20,22,-1,-1,-1,-1,24,26,-1,28,30,-1,-1,-1,-1,-1,-1,-1,-1,-1,32,-1,-1],"split_conditions":[6.20348E-1,3.18276E-1,1.036564E0,2.044015E-1,4.382865E-1,7.84565E-1,1.4029391E0,-3.0672767E-3,2.52491E-1,2.803185E-1,5.837225E-1,6.169085E-1,3.4892017E-3,5.9996448E-3,9.893741E-3,-2.4309566E-3,3.77381E-1,3.642045E-1,-1.3817837E-3,4.540545E-1,6.3278854E-1,5.812019E-4,1.8912407E-3,-1.9471919E-3,-5.6426437E-4,-1.0945909E-3,4.3347417E-4,-2.454087E-5,-3.8135133E-4,1.1117858E-3,5.919725E-1,7.372141E-5,4.7572583E-4],"split_indices":[0,0,0,0,0,0,0,0,0,1,1,1,0,0,0,0,1,0,0,0,1,0,0,0,0,0,0,0,0,0,0,0,0],"split_type":[0,0,0,0,0,0,0,0,0,0,0,0,0,0,0,0,0,0,0,0,0,0,0,0,0,0,0,0,0,0,0,0,0],"sum_hessian":[2.7E2,1.93E2,7.7E1,1.38E2,5.5E1,4.7E1,3E1,4.5E1,9.3E1,4E1,1.5E1,2.2E1,2.5E1,2.1E1,9E0,5.1E1,4.2E1,3E0,3.7E1,1E1,5E0,2E0,2E1,4.1E1,1E0,2E0,1E0,1E0,9E0,2E0,3E0,2E0,1E0],"tree_param":{"num_deleted":"0","num_feature":"2","num_nodes":"33","size_leaf_vector":"0"}},{"base_weights":[-1.5143668E-2,-2.065646E-1,4.6114868E-1,-2.4963382E-1,-9.597199E-2,2.727432E-1,7.379976E-1,-3.0283594E-1,-2.200625E-1,-1.3267265E-1,4.071731E-3,1.8549073E-1,3.5226685E-1,5.942376E-1,9.804698E-1,-2.3461276E-1,-1.8168652E-1,-5.998168E-2,-1.3683295E-1,-3.4800258E-2,7.465842E-2,5.773272E-2,1.9409001E-1,-1.0872937E-1,4.3130696E-2,-2.4418235E-3,-3.779192E-2,1.1043737E-1,2.9159606E-2,7.322987E-3,4.733473E-2],"categories":[],"categories_nodes":[],"categories_segments":[],"categories_sizes":[],"default_left":[1,1,1,1,1,1,1,0,1,1,1,1,0,0,0,0,0,1,0,1,1,0,0,0,0,0,0,0,1,0,0],"id":9,"left_children":[1,3,5,7,9,11,13,-1,15,17,19,21,-1,-1,-1,-1,-1,23,-1,25,27,-1,-1,-1,-1,-1,-1,-1,29,-1,-1],"loss_changes":[2.4802958E1,9.000912E-1,3.8671837E0,1.5203953E-1,2.0615375E-1,2.6771212E-1,4.9795914E-1,0E0,9.30357E-3,4.1915774E-3,4.6499655E-2,1.6260326E-2,0E0,0E0,0E0,0E0,0E0,2.4795534E-2,0E0,9.725783E-4,6.5470897E-3,0E0,0E0,0E0,0E0,0E0,0E0,0E0,1.2409016E-3,0E0,0E0],"parents":[2147483647,0,0,1,1,2,2,3,3,4,4,5,5,6,6,8,8,9,9,10,10,11,11,17,17,19,19,20,20,28,28],"right_children":[2,4,6,8,10,12,14,-1,16,18,20,22,-1,-1,-1,-1,-1,24,-1,26,28,-1,-1,-1,-1,-1,-1,-1,30,-1,-1],"split_conditions":[6.20348E-1,3.18276E-1,1.036564E0,2.0471099E-1,4.382865E-1,7.919365E-1,1.4029391E0,-3.0283593E-3,2.7291548E-1,2.803185E-1,5.837225E-1,6.169085E-1,3.5226685E-3,5.9423763E-3,9.804698E-3,-2.3461275E-3,-1.8168652E-3,3.642045E-1,-1.3683295E-3,4.540545E-1,6.3278854E-1,5.773272E-4,1.9409E-3,-1.0872937E-3,4.3130695E-4,-2.4418234E-5,-3.7791918E-4,1.1043737E-3,5.919725E-1,7.322987E-5,4.733473E-4],"split_indices":[0,0,0,0,0,0,0,0,0,1,1,1,0,0,0,0,0,0,0,0,1,0,0,0,0,0,0,0,0,0,0],"split_type":[0,0,0,0,0,0,0,0,0,0,0,0,0,0,0,0,0,0,0,0,0,0,0,0,0,0,0,0,0,0,0],"sum_hessian":[2.7E2,1.93E2,7.7E1,1.38E2,5.5E1,4.7E1,3E1,4.6E1,9.2E1,4E1,1.5E1,2.4E1,2.3E1,2.1E1,9E0,6.3E1,2.9E1,3E0,3.7E1,1E1,5E0,2E0,2.2E1,2E0,1E0,1E0,9E0,2E0,3E0,2E0,1E0],"tree_param":{"num_deleted":"0","num_feature":"2","num_nodes":"31","size_leaf_vector":"0"}},{"base_weights":[-1.4941235E-2,-2.0454001E-1,4.5681652E-1,-2.4718922E-1,-9.5026106E-2,2.701416E-1,7.3112553E-1,-3.0076453E-1,-2.1834183E-1,-1.313953E-1,4.109055E-3,1.7682634E-1,3.4229964E-1,5.885653E-1,9.7164553E-1,-2.3839733E-1,-1.8901095E-1,-5.9545852E-2,-1.3550062E-1,-3.448883E-2,7.4187E-2,5.7347834E-2,1.854744E-1,-1.9088094E-1,-5.5235863E-2,-1.080045E-1,4.2915046E-2,-2.4296194E-3,-3.745179E-2,1.09701134E-1,2.9004648E-2,7.274151E-3,4.709807E-2],"categories":[],"categories_nodes":[],"categories_segments":[],"categories_sizes":[],"default_left":[1,1,1,1,1,1,1,0,1,1,1,1,0,0,0,0,1,1,0,1,1,0,0,0,0,0,0,0,0,0,1,0,0],"id":10,"left_children":[1,3,5,7,9,11,13,-1,15,17,19,21,-1,-1,-1,-1,23,25,-1,27,29,-1,-1,-1,-1,-1,-1,-1,-1,-1,31,-1,-1],"loss_changes":[2.433295E1,8.826227E-1,3.7966099E0,1.4915562E-1,2.0244592E-1,2.626779E-1,4.910679E-1,0E0,1.0235786E-2,4.025042E-3,4.583639E-2,1.312834E-2,0E0,0E0,0E0,0E0,2.1326542E-4,2.4495484E-2,0E0,9.5389877E-4,6.445829E-3,0E0,0E0,0E0,0E0,0E0,0E0,0E0,0E0,0E0,1.2301179E-3,0E0,0E0],"parents":[2147483647,0,0,1,1,2,2,3,3,4,4,5,5,6,6,8,8,9,9,10,10,11,11,16,16,17,17,19,19,20,20,30,30],"right_children":[2,4,6,8,10,12,14,-1,16,18,20,22,-1,-1,-1,-1,24,26,-1,28,30,-1,-1,-1,-1,-1,-1,-1,-1,-1,32,-1,-1],"split_conditions":[6.20348E-1,3.18276E-1,1.036564E0,2.044015E-1,4.382865E-1,7.84565E-1,1.4029391E0,-3.0076453E-3,2.52491E-1,2.803185E-1,5.837225E-1,6.169085E-1,3.4229963E-3,5.8856527E-3,9.716455E-3,-2.3839732E-3,3.77381E-1,3.642045E-1,-1.3550062E-3,4.540545E-1,6.3278854E-1,5.7347835E-4,1.8547439E-3,-1.9088093E-3,-5.5235863E-4,-1.080045E-3,4.2915044E-4,-2.4296194E-5,-3.7451787E-4,1.0970113E-3,5.919725E-1,7.274151E-5,4.7098068E-4],"split_indices":[0,0,0,0,0,0,0,0,0,1,1,1,0,0,0,0,1,0,0,0,1,0,0,0,0,0,0,0,0,0,0,0,0],"split_type":[0,0,0,0,0,0,0,0,0,0,0,0,0,0,0,0,0,0,0,0,0,0,0,0,0,0,0,0,0,0,0,0,0],"sum_hessian":[2.7E2,1.93E2,7.7E1,1.38E2,5.5E1,4.7E1,3E1,4.5E1,9.3E1,4E1,1.5E1,2.2E1,2.5E1,2.1E1,9E0,5.1E1,4.2E1,3E0,3.7E1,1E1,5E0,2E0,2E1,4.1E1,1E0,2E0,1E0,1E0,9E0,2E0,3E0,2E0,1E0],"tree_param":{"num_deleted":"0","num_feature":"2","num_nodes":"33","size_leaf_vector":"0"}},{"base_weights":[-1.4744452E-2,-2.0253903E-1,4.525234E-1,-2.4477382E-1,-9.40895E-2,2.675621E-1,7.243176E-1,-2.9446226E-1,-2.144494E-1,-1.3013028E-1,4.1455887E-3,1.8193306E-1,3.456106E-1,5.558315E-1,9.1484976E-1,-2.2879574E-1,-1.7813024E-1,-5.9113123E-2,-1.3418129E-1,-3.418019E-2,7.3718585E-2,5.696553E-2,1.9032304E-1,-1.0728448E-1,4.270047E-2,-2.417475E-3,-3.7114717E-2,1.08969785E-1,2.885054E-2,7.2256722E-3,4.6862572E-2],"categories":[],"categories_nodes":[],"categories_segments":[],"categories_sizes":[],"default_left":[1,1,1,1,1,1,1,0,1,1,1,1,0,0,0,0,0,1,0,1,1,0,0,0,0,0,0,0,1,0,0],"id":11,"left_children":[1,3,5,7,9,11,13,-1,15,17,19,21,-1,-1,-1,-1,-1,23,-1,25,27,-1,-1,-1,-1,-1,-1,-1,29,-1,-1],"loss_changes":[2.3872005E1,8.6555576E-1,3.7273703E0,1.462946E-1,1.9880572E-1,2.579162E-1,4.8666E-1,0E0,6.1388016E-3,3.8634539E-3,4.5182746E-2,1.5370071E-2,0E0,0E0,0E0,0E0,0E0,2.419909E-2,0E0,9.355685E-4,6.3460805E-3,0E0,0E0,0E0,0E0,0E0,0E0,0E0,1.2194181E-3,0E0,0E0],"parents":[2147483647,0,0,1,1,2,2,3,3,4,4,5,5,6,6,8,8,9,9,10,10,11,11,17,17,19,19,20,20,28,28],"right_children":[2,4,6,8,10,12,14,-1,16,18,20,22,-1,-1,-1,-1,-1,24,-1,26,28,-1,-1,-1,-1,-1,-1,-1,30,-1,-1],"split_conditions":[6.20348E-1,3.18276E-1,1.036564E0,2.09384E-1,4.382865E-1,7.919365E-1,1.262841E0,-2.9446227E-3,2.7291548E-1,2.803185E-1,5.837225E-1,6.169085E-1,3.4561057E-3,5.5583147E-3,9.148497E-3,-2.2879574E-3,-1.7813024E-3,3.642045E-1,-1.3418129E-3,4.540545E-1,6.3278854E-1,5.6965527E-4,1.9032303E-3,-1.0728447E-3,4.2700468E-4,-2.417475E-5,-3.7114715E-4,1.0896978E-3,5.919725E-1,7.225672E-5,4.6862572E-4],"split_indices":[0,0,0,0,0,0,0,0,0,1,1,1,0,0,0,0,0,0,0,0,1,0,0,0,0,0,0,0,0,0,0],"split_type":[0,0,0,0,0,0,0,0,0,0,0,0,0,0,0,0,0,0,0,0,0,0,0,0,0,0,0,0,0,0,0],"sum_hessian":[2.7E2,1.93E2,7.7E1,1.38E2,5.5E1,4.7E1,3E1,4.9E1,8.9E1,4E1,1.5E1,2.4E1,2.3E1,1.8E1,1.2E1,6E1,2.9E1,3E0,3.7E1,1E1,5E0,2E0,2.2E1,2E0,1E0,1E0,9E0,2E0,3E0,2E0,1E0],"tree_param":{"num_deleted":"0","num_feature":"2","num_nodes":"31","size_leaf_vector":"0"}},{"base_weights":[-1.4549516E-2,-2.0055367E-1,4.4826272E-1,-2.4237654E-1,-9.316203E-2,2.6501E-1,7.1754885E-1,-2.9494166E-1,-2.140747E-1,-1.2887745E-1,4.181346E-3,1.9781485E-1,3.6601216E-1,5.855546E-1,9.7513974E-1,-2.3376474E-1,-1.8528502E-1,-5.8683448E-2,-1.3287477E-1,-3.3874318E-2,7.325318E-2,7.631692E-2,2.0810689E-1,-1.8712185E-1,-5.4069027E-2,-1.0656924E-1,4.2486966E-2,-2.4053901E-3,-3.6780674E-2,1.08243324E-1,2.8697267E-2,7.1775117E-3,4.6628267E-2],"categories":[],"categories_nodes":[],"categories_segments":[],"categories_sizes":[],"default_left":[1,1,1,1,1,1,1,0,1,1,1,1,0,0,0,0,1,1,0,1,1,0,0,0,0,0,0,0,0,0,1,0,0],"id":12,"left_children":[1,3,5,7,9,11,13,-1,15,17,19,21,-1,-1,-1,-1,23,25,-1,27,29,-1,-1,-1,-1,-1,-1,-1,-1,-1,31,-1,-1],"loss_changes":[2.3418936E1,8.487568E-1,3.6589403E0,1.436491E-1,1.9523177E-1,2.5336623E-1,4.8301888E-1,0E0,9.972572E-3,3.7065744E-3,4.4538587E-2,2.2882104E-2,0E0,0E0,0E0,0E0,2.464056E-4,2.3906305E-2,0E0,9.175865E-4,6.247822E-3,0E0,0E0,0E0,0E0,0E0,0E0,0E0,0E0,0E0,1.2088078E-3,0E0,0E0],"parents":[2147483647,0,0,1,1,2,2,3,3,4,4,5,5,6,6,8,8,9,9,10,10,11,11,16,16,17,17,19,19,20,20,30,30],"right_children":[2,4,6,8,10,12,14,-1,16,18,20,22,-1,-1,-1,-1,24,26,-1,28,30,-1,-1,-1,-1,-1,-1,-1,-1,-1,32,-1,-1],"split_conditions":[6.20348E-1,3.18276E-1,1.036564E0,2.044015E-1,4.382865E-1,8.336E-1,1.4201765E0,-2.9494166E-3,2.52491E-1,2.803185E-1,5.837225E-1,6.40345E-1,3.6601215E-3,5.855546E-3,9.751397E-3,-2.3376474E-3,3.77381E-1,3.642045E-1,-1.3287477E-3,4.540545E-1,6.3278854E-1,7.631692E-4,2.081069E-3,-1.8712184E-3,-5.4069026E-4,-1.0656924E-3,4.2486965E-4,-2.4053901E-5,-3.6780673E-4,1.0824333E-3,5.919725E-1,7.177512E-5,4.6628265E-4],"split_indices":[0,0,0,0,0,0,0,0,0,1,1,1,0,0,0,0,1,0,0,0,1,0,0,0,0,0,0,0,0,0,0,0,0],"split_type":[0,0,0,0,0,0,0,0,0,0,0,0,0,0,0,0,0,0,0,0,0,0,0,0,0,0,0,0,0,0,0,0,0],"sum_hessian":[2.7E2,1.93E2,7.7E1,1.38E2,5.5E1,4.7E1,3E1,4.5E1,9.3E1,4E1,1.5E1,3E1,1.7E1,2.2E1,8E0,5.1E1,4.2E1,3E0,3.7E1,1E1,5E0,3E0,2.7E1,4.1E1,1E0,2E0,1E0,1E0,9E0,2E0,3E0,2E0,1E0],"tree_param":{"num_deleted":"0","num_feature":"2","num_nodes":"33","size_leaf_vector":"0"}},{"base_weights":[-1.435358E-2,-1.9859163E-1,4.4406357E-1,-2.4000816E-1,-9.224364E-2,2.6249537E-1,7.108768E-1,-2.9205635E-1,-2.1198449E-1,-1.2763672E-1,4.216332E-3,1.7164044E-1,3.3277106E-1,5.799537E-1,9.6647185E-1,-2.3147206E-1,-1.8348825E-1,-5.8256812E-2,-1.3158101E-1,-3.3571187E-2,7.2790734E-2,5.6076985E-2,1.7997615E-1,-1.8529518E-1,-5.3798676E-2,-1.0585877E-1,4.2274535E-2,-2.393365E-3,-3.6449634E-2,1.0752171E-1,2.8544813E-2,7.129669E-3,4.6395123E-2],"categories":[],"categories_nodes":[],"categories_segments":[],"categories_sizes":[],"default_left":[1,1,1,1,1,1,1,0,1,1,1,1,0,0,0,0,1,1,0,1,1,0,0,0,0,0,0,0,0,0,1,0,0],"id":13,"left_children":[1,3,5,7,9,11,13,-1,15,17,19,21,-1,-1,-1,-1,23,25,-1,27,29,-1,-1,-1,-1,-1,-1,-1,-1,-1,31,-1,-1],"loss_changes":[2.2976276E1,8.3234596E-1,3.5920916E0,1.40831E-1,1.9172296E-1,2.4935794E-1,4.7685432E-1,0E0,9.727955E-3,3.5543442E-3,4.3903776E-2,1.2063444E-2,0E0,0E0,0E0,0E0,1.0788441E-4,2.3617085E-2,0E0,8.999426E-4,6.1510354E-3,0E0,0E0,0E0,0E0,0E0,0E0,0E0,0E0,0E0,1.198286E-3,0E0,0E0],"parents":[2147483647,0,0,1,1,2,2,3,3,4,4,5,5,6,6,8,8,9,9,10,10,11,11,16,16,17,17,19,19,20,20,30,30],"right_children":[2,4,6,8,10,12,14,-1,16,18,20,22,-1,-1,-1,-1,24,26,-1,28,30,-1,-1,-1,-1,-1,-1,-1,-1,-1,32,-1,-1],"split_conditions":[6.20348E-1,3.18276E-1,1.036564E0,2.044015E-1,4.382865E-1,7.84565E-1,1.4201765E0,-2.9205636E-3,2.52491E-1,2.803185E-1,5.837225E-1,6.169085E-1,3.3277106E-3,5.7995366E-3,9.664718E-3,-2.3147205E-3,3.77381E-1,3.642045E-1,-1.31581E-3,4.540545E-1,6.3278854E-1,5.607698E-4,1.7997614E-3,-1.8529517E-3,-5.3798675E-4,-1.0585877E-3,4.2274533E-4,-2.3933648E-5,-3.644963E-4,1.0752172E-3,5.919725E-1,7.1296694E-5,4.6395123E-4],"split_indices":[0,0,0,0,0,0,0,0,0,1,1,1,0,0,0,0,1,0,0,0,1,0,0,0,0,0,0,0,0,0,0,0,0],"split_type":[0,0,0,0,0,0,0,0,0,0,0,0,0,0,0,0,0,0,0,0,0,0,0,0,0,0,0,0,0,0,0,0,0],"sum_hessian":[2.7E2,1.93E2,7.7E1,1.38E2,5.5E1,4.7E1,3E1,4.5E1,9.3E1,4E1,1.5E1,2.2E1,2.5E1,2.2E1,8E0,5.1E1,4.2E1,3E0,3.7E1,1E1,5E0,2E0,2E1,4.1E1,1E0,2E0,1E0,1E0,9E0,2E0,3E0,2E0,1E0],"tree_param":{"num_deleted":"0","num_feature":"2","num_nodes":"33","size_leaf_vector":"0"}},{"base_weights":[-1.4162825E-2,-1.9664879E-1,4.398941E-1,-2.3766294E-1,-9.1334246E-2,2.253343E-1,6.598167E-1,-2.891993E-1,-2.099147E-1,-1.2640797E-1,4.2505395E-3,1.7002667E-1,2.8042597E-1,5.1891226E-1,8.9087045E-1,-2.237706E-1,-1.7289644E-1,-5.7833202E-2,-1.3029984E-1,-3.3270802E-2,7.233124E-2,5.5703145E-2,1.782621E-1,-1.05153054E-1,4.2063177E-2,-2.3813993E-3,-3.61216E-2,1.0680491E-1,2.839318E-2,7.0821443E-3,4.616314E-2],"categories":[],"categories_nodes":[],"categories_segments":[],"categories_sizes":[],"default_left":[1,1,1,1,1,1,1,0,1,1,1,1,0,0,0,0,0,1,0,1,1,0,0,0,0,0,0,0,1,0,0],"id":14,"left_children":[1,3,5,7,9,11,13,-1,15,17,19,21,-1,-1,-1,-1,-1,23,-1,25,27,-1,-1,-1,-1,-1,-1,-1,29,-1,-1],"loss_changes":[2.2541298E1,8.1625414E-1,3.5318718E0,1.3806915E-1,1.8827805E-1,7.7246666E-2,7.748642E-1,0E0,9.525299E-3,3.4066439E-3,4.327818E-2,1.172477E-2,0E0,0E0,0E0,0E0,0E0,2.3331396E-2,0E0,8.826358E-4,6.0557052E-3,0E0,0E0,0E0,0E0,0E0,0E0,0E0,1.1878512E-3,0E0,0E0],"parents":[2147483647,0,0,1,1,2,2,3,3,4,4,5,5,6,6,8,8,9,9,10,10,11,11,17,17,19,19,20,20,28,28],"right_children":[2,4,6,8,10,12,14,-1,16,18,20,22,-1,-1,-1,-1,-1,24,-1,26,28,-1,-1,-1,-1,-1,-1,-1,30,-1,-1],"split_conditions":[6.20348E-1,3.18276E-1,9.566565E-1,2.044015E-1,4.382865E-1,7.84565E-1,1.262841E0,-2.891993E-3,2.7291548E-1,2.803185E-1,5.837225E-1,6.169085E-1,2.8042595E-3,5.1891226E-3,8.908704E-3,-2.237706E-3,-1.7289644E-3,3.642045E-1,-1.3029983E-3,4.540545E-1,6.3278854E-1,5.570314E-4,1.7826209E-3,-1.0515305E-3,4.2063175E-4,-2.3813993E-5,-3.61216E-4,1.068049E-3,5.919725E-1,7.082144E-5,4.616314E-4],"split_indices":[0,0,0,0,0,0,0,0,0,1,1,1,0,0,0,0,0,0,0,0,1,0,0,0,0,0,0,0,0,0,0],"split_type":[0,0,0,0,0,0,0,0,0,0,0,0,0,0,0,0,0,0,0,0,0,0,0,0,0,0,0,0,0,0,0],"sum_hessian":[2.7E2,1.93E2,7.7E1,1.38E2,5.5E1,4E1,3.7E1,4.5E1,9.3E1,4E1,1.5E1,2.2E1,1.8E1,2.5E1,1.2E1,6.4E1,2.9E1,3E0,3.7E1,1E1,5E0,2E0,2E1,2E0,1E0,1E0,9E0,2E0,3E0,2E0,1E0],"tree_param":{"num_deleted":"0","num_feature":"2","num_nodes":"31","size_leaf_vector":"0"}},{"base_weights":[-1.3978156E-2,-1.9472137E-1,4.3574187E-1,-2.3533566E-1,-9.043374E-2,2.574146E-1,6.9780535E-1,-2.8313956E-1,-2.061631E-1,-1.2519106E-1,4.2839944E-3,1.9196266E-1,3.5583657E-1,5.6879586E-1,9.4996214E-1,-2.1996598E-1,-1.7122512E-1,-5.7412587E-2,-1.2903114E-1,-3.2973107E-2,7.187468E-2,7.429007E-2,2.0191723E-1,-1.0445202E-1,4.185286E-2,-2.3694932E-3,-3.5796516E-2,1.0609287E-1,2.8242365E-2,7.0349374E-3,4.5932323E-2],"categories":[],"categories_nodes":[],"categories_segments":[],"categories_sizes":[],"default_left":[1,1,1,1,1,1,1,0,1,1,1,1,0,0,0,0,0,1,0,1,1,0,0,0,0,0,0,0,1,0,0],"id":15,"left_children":[1,3,5,7,9,11,13,-1,15,17,19,21,-1,-1,-1,-1,-1,23,-1,25,27,-1,-1,-1,-1,-1,-1,-1,29,-1,-1],"loss_changes":[2.211277E1,8.004184E-1,3.4655533E0,1.3547134E-1,1.8489578E-1,2.409041E-1,4.6811485E-1,0E0,5.738497E-3,3.2632947E-3,4.2661656E-2,2.1312237E-2,0E0,0E0,0E0,0E0,0E0,2.304918E-2,0E0,8.6565316E-4,5.961802E-3,0E0,0E0,0E0,0E0,0E0,0E0,0E0,1.177503E-3,0E0,0E0],"parents":[2147483647,0,0,1,1,2,2,3,3,4,4,5,5,6,6,8,8,9,9,10,10,11,11,17,17,19,19,20,20,28,28],"right_children":[2,4,6,8,10,12,14,-1,16,18,20,22,-1,-1,-1,-1,-1,24,-1,26,28,-1,-1,-1,-1,-1,-1,-1,30,-1,-1],"split_conditions":[6.20348E-1,3.18276E-1,1.036564E0,2.09384E-1,4.382865E-1,8.336E-1,1.4201765E0,-2.8313955E-3,2.7291548E-1,2.803185E-1,5.837225E-1,6.40345E-1,3.5583656E-3,5.6879586E-3,9.499622E-3,-2.1996598E-3,-1.7122511E-3,3.642045E-1,-1.2903113E-3,4.540545E-1,6.3278854E-1,7.4290065E-4,2.0191723E-3,-1.0445202E-3,4.185286E-4,-2.3694933E-5,-3.5796515E-4,1.0609287E-3,5.919725E-1,7.034937E-5,4.5932323E-4],"split_indices":[0,0,0,0,0,0,0,0,0,1,1,1,0,0,0,0,0,0,0,0,1,0,0,0,0,0,0,0,0,0,0],"split_type":[0,0,0,0,0,0,0,0,0,0,0,0,0,0,0,0,0,0,0,0,0,0,0,0,0,0,0,0,0,0,0],"sum_hessian":[2.7E2,1.93E2,7.7E1,1.38E2,5.5E1,4.7E1,3E1,4.9E1,8.9E1,4E1,1.5E1,3E1,1.7E1,2.2E1,8E0,6E1,2.9E1,3E0,3.7E1,1E1,5E0,3E0,2.7E1,2E0,1E0,1E0,9E0,2E0,3E0,2E0,1E0],"tree_param":{"num_deleted":"0","num_feature":"2","num_nodes":"31","size_leaf_vector":"0"}},{"base_weights":[-1.3786498E-2,-1.9281256E-1,4.316602E-1,-2.3303081E-1,-8.954203E-2,2.209545E-1,6.476411E-1,-2.8360033E-1,-2.0580499E-1,-1.2398588E-1,4.3167137E-3,1.6666324E-1,2.750463E-1,5.090269E-1,8.75051E-1,-2.2480124E-1,-1.7804661E-1,-5.6994967E-2,-1.2777476E-1,-3.267808E-2,7.142105E-2,5.483653E-2,1.7470214E-1,-1.7981872E-1,-5.1809072E-2,-1.0375568E-1,4.164359E-2,-2.3576468E-3,-3.5474356E-2,1.053856E-1,2.809237E-2,6.9880486E-3,4.5702666E-2],"categories":[],"categories_nodes":[],"categories_segments":[],"categories_sizes":[],"default_left":[1,1,1,1,1,1,1,0,1,1,1,1,0,0,0,0,1,1,0,1,1,0,0,0,0,0,0,0,0,0,1,0,0],"id":16,"left_children":[1,3,5,7,9,11,13,-1,15,17,19,21,-1,-1,-1,-1,23,25,-1,27,29,-1,-1,-1,-1,-1,-1,-1,-1,-1,31,-1,-1],"loss_changes":[2.1694551E1,7.848859E-1,3.4065561E0,1.3300848E-1,1.8157515E-1,7.456517E-2,7.524214E-1,0E0,9.54175E-3,3.1241775E-3,4.205408E-2,1.10961795E-2,0E0,0E0,0E0,0E0,3.0314922E-4,2.2770397E-2,0E0,8.489918E-4,5.8693048E-3,0E0,0E0,0E0,0E0,0E0,0E0,0E0,0E0,0E0,1.167241E-3,0E0,0E0],"parents":[2147483647,0,0,1,1,2,2,3,3,4,4,5,5,6,6,8,8,9,9,10,10,11,11,16,16,17,17,19,19,20,20,30,30],"right_children":[2,4,6,8,10,12,14,-1,16,18,20,22,-1,-1,-1,-1,24,26,-1,28,30,-1,-1,-1,-1,-1,-1,-1,-1,-1,32,-1,-1],"split_conditions":[6.20348E-1,3.18276E-1,9.566565E-1,2.044015E-1,4.382865E-1,7.84565E-1,1.262841E0,-2.8360032E-3,2.52491E-1,2.803185E-1,5.837225E-1,6.169085E-1,2.7504629E-3,5.090269E-3,8.75051E-3,-2.2480125E-3,3.77381E-1,3.642045E-1,-1.2777476E-3,4.540545E-1,6.3278854E-1,5.483653E-4,1.7470213E-3,-1.7981871E-3,-5.1809073E-4,-1.0375568E-3,4.1643588E-4,-2.3576467E-5,-3.5474356E-4,1.053856E-3,5.919725E-1,6.988049E-5,4.5702665E-4],"split_indices":[0,0,0,0,0,0,0,0,0,1,1,1,0,0,0,0,1,0,0,0,1,0,0,0,0,0,0,0,0,0,0,0,0],"split_type":[0,0,0,0,0,0,0,0,0,0,0,0,0,0,0,0,0,0,0,0,0,0,0,0,0,0,0,0,0,0,0,0,0],"sum_hessian":[2.7E2,1.93E2,7.7E1,1.38E2,5.5E1,4E1,3.7E1,4.5E1,9.3E1,4E1,1.5E1,2.2E1,1.8E1,2.5E1,1.2E1,5.1E1,4.2E1,3E0,3.7E1,1E1,5E0,2E0,2E1,4.1E1,1E0,2E0,1E0,1E0,9E0,2E0,3E0,2E0,1E0],"tree_param":{"num_deleted":"0","num_feature":"2","num_nodes":"33","size_leaf_vector":"0"}},{"base_weights":[-1.3608822E-2,-1.9092618E-1,4.2758575E-1,-2.3075375E-1,-8.865905E-2,2.5244763E-1,6.8497425E-1,-2.8082597E-1,-2.037955E-1,-1.2279233E-1,4.3486953E-3,1.8825987E-1,3.4896833E-1,5.578497E-1,9.3373984E-1,-2.2259645E-1,-1.7632002E-1,-5.6580298E-2,-1.2653065E-1,-3.2385696E-2,7.09703E-2,7.302195E-2,1.9799885E-1,-1.7806336E-1,-5.155003E-2,-1.0306397E-1,4.143536E-2,-2.34586E-3,-3.5155095E-2,1.0468302E-1,2.7943179E-2,6.9414773E-3,4.547414E-2],"categories":[],"categories_nodes":[],"categories_segments":[],"categories_sizes":[],"default_left":[1,1,1,1,1,1,1,0,1,1,1,1,0,0,0,0,1,1,0,1,1,0,0,0,0,0,0,0,0,0,1,0,0],"id":17,"left_children":[1,3,5,7,9,11,13,-1,15,17,19,21,-1,-1,-1,-1,23,25,-1,27,29,-1,-1,-1,-1,-1,-1,-1,-1,-1,31,-1,-1],"loss_changes":[2.128236E1,7.697134E-1,3.3432064E0,1.303997E-1,1.7831492E-1,2.3168468E-1,4.5946407E-1,0E0,9.309053E-3,2.9892325E-3,4.1455287E-2,2.0333052E-2,0E0,0E0,0E0,0E0,1.7392635E-4,2.2495005E-2,0E0,8.3264615E-4,5.7781897E-3,0E0,0E0,0E0,0E0,0E0,0E0,0E0,0E0,0E0,1.1570624E-3,0E0,0E0],"parents":[2147483647,0,0,1,1,2,2,3,3,4,4,5,5,6,6,8,8,9,9,10,10,11,11,16,16,17,17,19,19,20,20,30,30],"right_children":[2,4,6,8,10,12,14,-1,16,18,20,22,-1,-1,-1,-1,24,26,-1,28,30,-1,-1,-1,-1,-1,-1,-1,-1,-1,32,-1,-1],"split_conditions":[6.20348E-1,3.18276E-1,1.036564E0,2.044015E-1,4.382865E-1,8.336E-1,1.4201765E0,-2.8082596E-3,2.52491E-1,2.803185E-1,5.837225E-1,6.40345E-1,3.4896831E-3,5.578497E-3,9.337398E-3,-2.2259646E-3,3.77381E-1,3.642045E-1,-1.2653065E-3,4.540545E-1,6.3278854E-1,7.302195E-4,1.9799885E-3,-1.7806336E-3,-5.155003E-4,-1.0306396E-3,4.143536E-4,-2.3458599E-5,-3.5155093E-4,1.0468302E-3,5.919725E-1,6.9414775E-5,4.547414E-4],"split_indices":[0,0,0,0,0,0,0,0,0,1,1,1,0,0,0,0,1,0,0,0,1,0,0,0,0,0,0,0,0,0,0,0,0],"split_type":[0,0,0,0,0,0,0,0,0,0,0,0,0,0,0,0,0,0,0,0,0,0,0,0,0,0,0,0,0,0,0,0,0],"sum_hessian":[2.7E2,1.93E2,7.7E1,1.38E2,5.5E1,4.7E1,3E1,4.5E1,9.3E1,4E1,1.5E1,3E1,1.7E1,2.2E1,8E0,5.1E1,4.2E1,3E0,3.7E1,1E1,5E0,3E0,2.7E1,4.1E1,1E0,2E0,1E0,1E0,9E0,2E0,3E0,2E0,1E0],"tree_param":{"num_deleted":"0","num_feature":"2","num_nodes":"33","size_leaf_vector":"0"}},{"base_weights":[-1.3424396E-2,-1.9222222E-1,4.158582E-1,-2.3816383E-1,-1.14068605E-1,2.1191657E-1,6.356906E-1,-2.8814E-1,-2.1505535E-1,-1.361286E-1,-1.13780005E-2,1.5947112E-1,2.6977023E-1,4.993308E-1,8.595111E-1,-1.5285282E-1,-1.10026665E-1,-3.2095935E-2,4.8440814E-2,5.3984147E-2,1.6629677E-1,-1.0810316E-2,-1.1753156E-1,-2.3341328E-3,-3.48387E-2,8.653885E-2,6.8951845E-3,-5.744365E-2,4.1228175E-2,-4.059258E-2,-1.22457005E-1],"categories":[],"categories_nodes":[],"categories_segments":[],"categories_sizes":[],"default_left":[1,1,1,1,1,1,1,0,0,1,1,1,0,0,0,0,1,1,1,0,0,1,1,0,0,0,0,0,0,0,0],"id":18,"left_children":[1,3,5,7,9,11,13,-1,-1,15,17,19,-1,-1,-1,-1,21,23,25,-1,-1,27,29,-1,-1,-1,-1,-1,-1,-1,-1],"loss_changes":[2.0880487E1,6.622095E-1,3.4519243E0,7.6618195E-2,1.63822E-1,8.744836E-2,7.305851E-1,0E0,0E0,9.374261E-3,1.8905263E-2,9.023011E-3,0E0,0E0,0E0,0E0,1.8833876E-2,8.166088E-4,5.7345275E-3,0E0,0E0,9.648481E-3,4.503131E-3,0E0,0E0,0E0,0E0,0E0,0E0,0E0,0E0],"parents":[2147483647,0,0,1,1,2,2,3,3,4,4,5,5,6,6,9,9,10,10,11,11,16,16,17,17,18,18,21,21,22,22],"right_children":[2,4,6,8,10,12,14,-1,-1,16,18,20,-1,-1,-1,-1,22,24,26,-1,-1,28,30,-1,-1,-1,-1,-1,-1,-1,-1],"split_conditions":[5.9464E-1,2.849915E-1,9.566565E-1,1.89694E-1,4.382865E-1,7.84565E-1,1.262841E0,-2.8813998E-3,-2.1505535E-3,3.4309202E-1,5.837225E-1,6.0289E-1,2.6977023E-3,4.993308E-3,8.595111E-3,-1.5285282E-3,2.803185E-1,4.540545E-1,4.8771453E-1,5.398415E-4,1.6629676E-3,3.642045E-1,3.45374E-1,-2.3341327E-5,-3.4838697E-4,8.653885E-4,6.895184E-5,-5.7443645E-4,4.1228175E-4,-4.059258E-4,-1.22457E-3],"split_indices":[0,0,0,0,0,0,0,0,0,0,1,1,0,0,0,0,1,0,0,0,0,0,0,0,0,0,0,0,0,0,0],"split_type":[0,0,0,0,0,0,0,0,0,0,0,0,0,0,0,0,0,0,0,0,0,0,0,0,0,0,0,0,0,0,0],"sum_hessian":[2.7E2,1.91E2,7.9E1,1.19E2,7.2E1,4.2E1,3.7E1,3.4E1,8.5E1,5.9E1,1.3E1,2.4E1,1.8E1,2.5E1,1.2E1,3.3E1,2.6E1,1E1,3E0,2E0,2.2E1,2E0,2.4E1,1E0,9E0,1E0,2E0,1E0,1E0,2E0,2.2E1],"tree_param":{"num_deleted":"0","num_feature":"2","num_nodes":"31","size_leaf_vector":"0"}},{"base_weights":[-1.3250669E-2,-1.8721312E-1,4.1959503E-1,-2.2627011E-1,-8.6924985E-2,2.4759707E-1,6.7237914E-1,-2.723225E-1,-1.9817133E-1,-1.2040751E-1,4.3068007E-3,1.8466078E-1,3.4223196E-1,5.471111E-1,9.1779983E-1,-2.1147722E-1,-1.6451032E-1,-5.5745892E-2,-1.2404538E-1,-3.1808767E-2,6.9800876E-2,7.1788624E-2,1.9419035E-1,-1.01675875E-1,4.1022032E-2,-2.3224652E-3,-3.452515E-2,1.0314234E-1,2.7344555E-2,6.8492093E-3,4.4415295E-2],"categories":[],"categories_nodes":[],"categories_segments":[],"categories_sizes":[],"default_left":[1,1,1,1,1,1,1,0,1,1,1,1,0,0,0,0,0,1,0,1,1,0,0,0,0,0,0,0,1,0,0],"id":19,"left_children":[1,3,5,7,9,11,13,-1,15,17,19,21,-1,-1,-1,-1,-1,23,-1,25,27,-1,-1,-1,-1,-1,-1,-1,29,-1,-1],"loss_changes":[2.0484556E1,7.4022055E-1,3.2248316E0,1.2590218E-1,1.715801E-1,2.2268963E-1,4.5090485E-1,0E0,5.5196285E-3,2.7294755E-3,4.006597E-2,1.9403577E-2,0E0,0E0,0E0,0E0,0E0,2.194915E-2,0E0,8.0087315E-4,5.672954E-3,0E0,0E0,0E0,0E0,0E0,0E0,0E0,1.0952731E-3,0E0,0E0],"parents":[2147483647,0,0,1,1,2,2,3,3,4,4,5,5,6,6,8,8,9,9,10,10,11,11,17,17,19,19,20,20,28,28],"right_children":[2,4,6,8,10,12,14,-1,16,18,20,22,-1,-1,-1,-1,-1,24,-1,26,28,-1,-1,-1,-1,-1,-1,-1,30,-1,-1],"split_conditions":[6.20348E-1,3.18276E-1,1.036564E0,2.09384E-1,4.382865E-1,8.336E-1,1.4201765E0,-2.723225E-3,2.7291548E-1,2.803185E-1,5.837225E-1,6.40345E-1,3.4223194E-3,5.471111E-3,9.177998E-3,-2.114772E-3,-1.6451032E-3,3.642045E-1,-1.2404538E-3,4.540545E-1,6.3278854E-1,7.178862E-4,1.9419035E-3,-1.0167587E-3,4.1022032E-4,-2.3224651E-5,-3.4525146E-4,1.0314235E-3,5.919725E-1,6.849209E-5,4.4415295E-4],"split_indices":[0,0,0,0,0,0,0,0,0,1,1,1,0,0,0,0,0,0,0,0,1,0,0,0,0,0,0,0,0,0,0],"split_type":[0,0,0,0,0,0,0,0,0,0,0,0,0,0,0,0,0,0,0,0,0,0,0,0,0,0,0,0,0,0,0],"sum_hessian":[2.7E2,1.93E2,7.7E1,1.38E2,5.5E1,4.7E1,3E1,4.9E1,8.9E1,4E1,1.5E1,3E1,1.7E1,2.2E1,8E0,6E1,2.9E1,3E0,3.7E1,1E1,5E0,3E0,2.7E1,2E0,1E0,1E0,9E0,2E0,3E0,2E0,1E0],"tree_param":{"num_deleted":"0","num_feature":"2","num_nodes":"31","size_leaf_vector":"0"}},{"base_weights":[-1.3068063E-2,-1.8537787E-1,4.1566488E-1,-2.2405405E-1,-8.6067714E-2,2.1247159E-1,6.239612E-1,-2.7277073E-1,-1.9783042E-1,-1.1924847E-1,4.337214E-3,1.6017468E-1,2.6459566E-1,4.8982042E-1,8.442457E-1,-2.1618317E-1,-1.7103568E-1,-5.534006E-2,-1.2283756E-1,-3.152417E-2,6.936022E-2,5.3145666E-2,1.6783717E-1,-1.7274103E-1,-4.970546E-2,-1.0099804E-1,4.0816933E-2,-2.3108572E-3,-3.4214415E-2,1.02454744E-1,2.7199268E-2,6.803552E-3,4.419321E-2],"categories":[],"categories_nodes":[],"categories_segments":[],"categories_sizes":[],"default_left":[1,1,1,1,1,1,1,0,1,1,1,1,0,0,0,0,1,1,0,1,1,0,0,0,0,0,0,0,0,0,1,0,0],"id":20,"left_children":[1,3,5,7,9,11,13,-1,15,17,19,21,-1,-1,-1,-1,23,25,-1,27,29,-1,-1,-1,-1,-1,-1,-1,-1,-1,31,-1,-1],"loss_changes":[2.0097149E1,7.258582E-1,3.1687307E0,1.23613834E-1,1.6850066E-1,6.9381475E-2,7.093382E-1,0E0,9.249926E-3,2.6064515E-3,3.9495565E-2,9.94271E-3,0E0,0E0,0E0,0E0,3.1101704E-4,2.1683764E-2,0E0,7.854365E-4,5.5850837E-3,0E0,0E0,0E0,0E0,0E0,0E0,0E0,0E0,0E0,1.0857435E-3,0E0,0E0],"parents":[2147483647,0,0,1,1,2,2,3,3,4,4,5,5,6,6,8,8,9,9,10,10,11,11,16,16,17,17,19,19,20,20,30,30],"right_children":[2,4,6,8,10,12,14,-1,16,18,20,22,-1,-1,-1,-1,24,26,-1,28,30,-1,-1,-1,-1,-1,-1,-1,-1,-1,32,-1,-1],"split_conditions":[6.20348E-1,3.18276E-1,9.566565E-1,2.044015E-1,4.382865E-1,7.84565E-1,1.262841E0,-2.7277071E-3,2.52491E-1,2.803185E-1,5.837225E-1,6.169085E-1,2.6459566E-3,4.898204E-3,8.442457E-3,-2.1618316E-3,3.77381E-1,3.642045E-1,-1.2283756E-3,4.540545E-1,6.3278854E-1,5.3145667E-4,1.6783717E-3,-1.7274102E-3,-4.970546E-4,-1.0099803E-3,4.0816932E-4,-2.310857E-5,-3.4214414E-4,1.0245474E-3,5.919725E-1,6.803552E-5,4.4193206E-4],"split_indices":[0,0,0,0,0,0,0,0,0,1,1,1,0,0,0,0,1,0,0,0,1,0,0,0,0,0,0,0,0,0,0,0,0],"split_type":[0,0,0,0,0,0,0,0,0,0,0,0,0,0,0,0,0,0,0,0,0,0,0,0,0,0,0,0,0,0,0,0,0],"sum_hessian":[2.7E2,1.93E2,7.7E1,1.38E2,5.5E1,4E1,3.7E1,4.5E1,9.3E1,4E1,1.5E1,2.2E1,1.8E1,2.5E1,1.2E1,5.1E1,4.2E1,3E0,3.7E1,1E1,5E0,2E0,2E1,4.1E1,1E0,2E0,1E0,1E0,9E0,2E0,3E0,2E0,1E0],"tree_param":{"num_deleted":"0","num_feature":"2","num_nodes":"33","size_leaf_vector":"0"}},{"base_weights":[-1.2898927E-2,-1.8663828E-1,4.0423676E-1,-2.3124489E-1,-1.1075566E-1,2.0586467E-1,6.180726E-1,-2.8004575E-1,-2.086952E-1,-1.3219884E-1,-1.0945186E-2,1.5489964E-1,2.6208892E-1,4.8511064E-1,8.3645266E-1,-1.4851722E-1,-1.0675352E-1,-3.1242145E-2,4.760775E-2,5.2791376E-2,1.6148335E-1,-1.0353476E-2,-1.1405138E-1,-2.2993088E-3,-3.3906497E-2,8.507818E-2,6.758213E-3,-5.614306E-2,4.0612847E-2,-3.8676072E-2,-1.18924186E-1],"categories":[],"categories_nodes":[],"categories_segments":[],"categories_sizes":[],"default_left":[1,1,1,1,1,1,1,0,0,1,1,1,0,0,0,0,1,1,1,0,0,1,1,0,0,0,0,0,0,0,0],"id":21,"left_children":[1,3,5,7,9,11,13,-1,-1,15,17,19,-1,-1,-1,-1,21,23,25,-1,-1,27,29,-1,-1,-1,-1,-1,-1,-1,-1],"loss_changes":[1.97156E1,6.2428284E-1,3.266285E0,7.3608875E-2,1.5479153E-1,8.261764E-2,6.976061E-1,0E0,0E0,9.058833E-3,1.812562E-2,8.28135E-3,0E0,0E0,0E0,0E0,1.78141E-2,7.702913E-4,5.547622E-3,0E0,0E0,9.281309E-3,4.582703E-3,0E0,0E0,0E0,0E0,0E0,0E0,0E0,0E0],"parents":[2147483647,0,0,1,1,2,2,3,3,4,4,5,5,6,6,9,9,10,10,11,11,16,16,17,17,18,18,21,21,22,22],"right_children":[2,4,6,8,10,12,14,-1,-1,16,18,20,-1,-1,-1,-1,22,24,26,-1,-1,28,30,-1,-1,-1,-1,-1,-1,-1,-1],"split_conditions":[5.9464E-1,2.849915E-1,9.566565E-1,1.89694E-1,4.382865E-1,7.84565E-1,1.262841E0,-2.8004574E-3,-2.086952E-3,3.4309202E-1,5.837225E-1,6.0289E-1,2.620889E-3,4.851106E-3,8.364527E-3,-1.4851722E-3,2.803185E-1,4.540545E-1,4.8771453E-1,5.2791374E-4,1.6148335E-3,3.642045E-1,3.45374E-1,-2.2993087E-5,-3.3906495E-4,8.507818E-4,6.758213E-5,-5.614306E-4,4.0612847E-4,-3.8676072E-4,-1.1892419E-3],"split_indices":[0,0,0,0,0,0,0,0,0,0,1,1,0,0,0,0,1,0,0,0,0,0,0,0,0,0,0,0,0,0,0],"split_type":[0,0,0,0,0,0,0,0,0,0,0,0,0,0,0,0,0,0,0,0,0,0,0,0,0,0,0,0,0,0,0],"sum_hessian":[2.7E2,1.91E2,7.9E1,1.19E2,7.2E1,4.2E1,3.7E1,3.4E1,8.5E1,5.9E1,1.3E1,2.4E1,1.8E1,2.5E1,1.2E1,3.3E1,2.6E1,1E1,3E0,2E0,2.2E1,2E0,2.4E1,1E0,9E0,1E0,2E0,1E0,1E0,2E0,2.2E1],"tree_param":{"num_deleted":"0","num_feature":"2","num_nodes":"31","size_leaf_vector":"0"}},{"base_weights":[-1.2731445E-2,-1.8177257E-1,4.0786743E-1,-2.1970049E-1,-8.438415E-2,2.4043468E-1,6.539611E-1,-2.6753336E-1,-1.9395567E-1,-1.16932735E-1,4.2956024E-3,1.6328211E-1,3.1078383E-1,5.3132504E-1,8.947021E-1,-2.1201612E-1,-1.6760455E-1,-5.4527007E-2,-1.20424576E-1,-3.096264E-2,6.821978E-2,5.2439433E-2,1.7064063E-1,-1.692754E-1,-4.8714355E-2,-9.964252E-2,4.0409774E-2,-2.287805E-3,-3.3601344E-2,1.00949846E-1,2.6617289E-2,6.713152E-3,4.316485E-2],"categories":[],"categories_nodes":[],"categories_segments":[],"categories_sizes":[],"default_left":[1,1,1,1,1,1,1,0,1,1,1,1,0,0,0,0,1,1,0,1,1,0,0,0,0,0,0,0,0,0,1,0,0],"id":22,"left_children":[1,3,5,7,9,11,13,-1,15,17,19,21,-1,-1,-1,-1,23,25,-1,27,29,-1,-1,-1,-1,-1,-1,-1,-1,-1,31,-1,-1],"loss_changes":[1.9341835E1,6.980467E-1,3.0566883E0,1.1928129E-1,1.6214067E-1,2.0978022E-1,4.3985176E-1,0E0,9.20105E-3,2.3679733E-3,3.817393E-2,1.1442661E-2,0E0,0E0,0E0,0E0,2.9575825E-4,2.115902E-2,0E0,7.5543486E-4,5.4829028E-3,0E0,0E0,0E0,0E0,0E0,0E0,0E0,0E0,0E0,1.0276872E-3,0E0,0E0],"parents":[2147483647,0,0,1,1,2,2,3,3,4,4,5,5,6,6,8,8,9,9,10,10,11,11,16,16,17,17,19,19,20,20,30,30],"right_children":[2,4,6,8,10,12,14,-1,16,18,20,22,-1,-1,-1,-1,24,26,-1,28,30,-1,-1,-1,-1,-1,-1,-1,-1,-1,32,-1,-1],"split_conditions":[6.20348E-1,3.18276E-1,1.036564E0,2.044015E-1,4.382865E-1,7.919365E-1,1.4201765E0,-2.6753335E-3,2.52491E-1,2.803185E-1,5.837225E-1,6.169085E-1,3.1078383E-3,5.3132502E-3,8.94702E-3,-2.1201612E-3,3.77381E-1,3.642045E-1,-1.2042457E-3,4.540545E-1,6.3278854E-1,5.2439433E-4,1.7064062E-3,-1.692754E-3,-4.8714352E-4,-9.964252E-4,4.0409772E-4,-2.287805E-5,-3.3601344E-4,1.0094985E-3,5.919725E-1,6.713152E-5,4.3164848E-4],"split_indices":[0,0,0,0,0,0,0,0,0,1,1,1,0,0,0,0,1,0,0,0,1,0,0,0,0,0,0,0,0,0,0,0,0],"split_type":[0,0,0,0,0,0,0,0,0,0,0,0,0,0,0,0,0,0,0,0,0,0,0,0,0,0,0,0,0,0,0,0,0],"sum_hessian":[2.7E2,1.93E2,7.7E1,1.38E2,5.5E1,4.7E1,3E1,4.5E1,9.3E1,4E1,1.5E1,2.4E1,2.3E1,2.2E1,8E0,5.1E1,4.2E1,3E0,3.7E1,1E1,5E0,2E0,2.2E1,4.1E1,1E0,2E0,1E0,1E0,9E0,2E0,3E0,2E0,1E0],"tree_param":{"num_deleted":"0","num_feature":"2","num_nodes":"33","size_leaf_vector":"0"}},{"base_weights":[-1.2559942E-2,-1.7999415E-1,4.0404E-1,-2.1755368E-1,-8.355186E-2,2.3814154E-1,6.478815E-1,-2.6191807E-1,-1.9048953E-1,-1.1580722E-1,4.3244865E-3,1.7750145E-1,3.2934716E-1,5.262428E-1,8.8674915E-1,-2.0331626E-1,-1.5805885E-1,-5.412983E-2,-1.1925202E-1,-3.0685633E-2,6.778896E-2,6.920844E-2,1.8663254E-1,-9.897825E-2,4.0207714E-2,-2.276361E-3,-3.3298925E-2,1.0027683E-1,2.6475817E-2,6.668409E-3,4.294902E-2],"categories":[],"categories_nodes":[],"categories_segments":[],"categories_sizes":[],"default_left":[1,1,1,1,1,1,1,0,1,1,1,1,0,0,0,0,0,1,0,1,1,0,0,0,0,0,0,0,1,0,0],"id":23,"left_children":[1,3,5,7,9,11,13,-1,15,17,19,21,-1,-1,-1,-1,-1,23,-1,25,27,-1,-1,-1,-1,-1,-1,-1,29,-1,-1],"loss_changes":[1.8975811E1,6.845541E-1,3.0010405E0,1.1700249E-1,1.5923187E-1,2.070148E-1,4.3407726E-1,0E0,5.302191E-3,2.2560358E-3,3.763053E-2,1.7737329E-2,0E0,0E0,0E0,0E0,0E0,2.0903248E-2,0E0,7.408587E-4,5.398143E-3,0E0,0E0,0E0,0E0,0E0,0E0,0E0,1.0187642E-3,0E0,0E0],"parents":[2147483647,0,0,1,1,2,2,3,3,4,4,5,5,6,6,8,8,9,9,10,10,11,11,17,17,19,19,20,20,28,28],"right_children":[2,4,6,8,10,12,14,-1,16,18,20,22,-1,-1,-1,-1,-1,24,-1,26,28,-1,-1,-1,-1,-1,-1,-1,30,-1,-1],"split_conditions":[6.20348E-1,3.18276E-1,1.036564E0,2.09384E-1,4.382865E-1,8.336E-1,1.4201765E0,-2.6191806E-3,2.7291548E-1,2.803185E-1,5.837225E-1,6.40345E-1,3.2934716E-3,5.262428E-3,8.867491E-3,-2.0331626E-3,-1.5805885E-3,3.642045E-1,-1.1925201E-3,4.540545E-1,6.3278854E-1,6.9208443E-4,1.8663254E-3,-9.897825E-4,4.0207713E-4,-2.276361E-5,-3.3298924E-4,1.0027683E-3,5.919725E-1,6.6684086E-5,4.294902E-4],"split_indices":[0,0,0,0,0,0,0,0,0,1,1,1,0,0,0,0,0,0,0,0,1,0,0,0,0,0,0,0,0,0,0],"split_type":[0,0,0,0,0,0,0,0,0,0,0,0,0,0,0,0,0,0,0,0,0,0,0,0,0,0,0,0,0,0,0],"sum_hessian":[2.7E2,1.93E2,7.7E1,1.38E2,5.5E1,4.7E1,3E1,4.9E1,8.9E1,4E1,1.5E1,3E1,1.7E1,2.2E1,8E0,6E1,2.9E1,3E0,3.7E1,1E1,5E0,3E0,2.7E1,2E0,1E0,1E0,9E0,2E0,3E0,2E0,1E0],"tree_param":{"num_deleted":"0","num_feature":"2","num_nodes":"31","size_leaf_vector":"0"}},{"base_weights":[-1.2385961E-2,-1.8121639E-1,3.929619E-1,-2.2905338E-1,-1.1425148E-1,1.9981006E-1,6.0118735E-1,-2.842657E-1,-2.1055497E-1,-1.3364151E-1,-1.052552E-2,1.5041289E-1,2.5429E-1,4.7140104E-1,8.1451476E-1,-1.4941195E-1,-1.0357595E-1,-3.0411124E-2,4.679127E-2,5.162845E-2,1.5675811E-1,-9.908388E-3,-1.10673025E-1,-2.2649765E-3,-3.299924E-2,8.3646625E-2,6.623944E-3,-5.486925E-2,4.0006667E-2,-3.6820382E-2,-1.1549411E-1],"categories":[],"categories_nodes":[],"categories_segments":[],"categories_sizes":[],"default_left":[1,1,1,1,1,1,1,0,0,1,1,1,0,0,0,0,1,1,1,0,0,1,1,0,0,0,0,0,0,0,0],"id":24,"left_children":[1,3,5,7,9,11,13,-1,-1,15,17,19,-1,-1,-1,-1,21,23,25,-1,-1,27,29,-1,-1,-1,-1,-1,-1,-1,-1],"loss_changes":[1.861711E1,5.888829E-1,3.0974073E0,5.3515434E-2,1.635158E-1,7.7471256E-2,6.681423E-1,0E0,0E0,1.7240644E-2,1.7379882E-2,7.5771213E-3,0E0,0E0,0E0,0E0,1.685208E-2,7.2655827E-4,5.367454E-3,0E0,0E0,8.927807E-3,4.6486855E-3,0E0,0E0,0E0,0E0,0E0,0E0,0E0,0E0],"parents":[2147483647,0,0,1,1,2,2,3,3,4,4,5,5,6,6,9,9,10,10,11,11,16,16,17,17,18,18,21,21,22,22],"right_children":[2,4,6,8,10,12,14,-1,-1,16,18,20,-1,-1,-1,-1,22,24,26,-1,-1,28,30,-1,-1,-1,-1,-1,-1,-1,-1],"split_conditions":[5.9464E-1,2.740725E-1,9.566565E-1,1.615695E-1,4.382865E-1,7.84565E-1,1.262841E0,-2.8426568E-3,-2.1055497E-3,3.4309202E-1,5.837225E-1,6.0289E-1,2.5429002E-3,4.7140103E-3,8.145147E-3,-1.4941194E-3,2.803185E-1,4.540545E-1,4.8771453E-1,5.162845E-4,1.5675811E-3,3.642045E-1,3.45374E-1,-2.2649765E-5,-3.2999238E-4,8.364662E-4,6.623944E-5,-5.486925E-4,4.0006667E-4,-3.6820382E-4,-1.154941E-3],"split_indices":[0,0,0,0,0,0,0,0,0,0,1,1,0,0,0,0,1,0,0,0,0,0,0,0,0,0,0,0,0,0,0],"split_type":[0,0,0,0,0,0,0,0,0,0,0,0,0,0,0,0,0,0,0,0,0,0,0,0,0,0,0,0,0,0,0],"sum_hessian":[2.7E2,1.91E2,7.9E1,1.1E2,8.1E1,4.2E1,3.7E1,2.4E1,8.6E1,6.8E1,1.3E1,2.4E1,1.8E1,2.5E1,1.2E1,4.2E1,2.6E1,1E1,3E0,2E0,2.2E1,2E0,2.4E1,1E0,9E0,1E0,2E0,1E0,1E0,2E0,2.2E1],"tree_param":{"num_deleted":"0","num_feature":"2","num_nodes":"31","size_leaf_vector":"0"}},{"base_weights":[-1.2225488E-2,-1.7649129E-1,3.9648977E-1,-2.1332847E-1,-8.190452E-2,2.3356631E-1,6.359683E-1,-2.599096E-1,-1.8826398E-1,-1.1354109E-1,4.283214E-3,1.7410806E-1,3.2299072E-1,5.161034E-1,8.716268E-1,-2.058325E-1,-1.6264011E-1,-5.3324774E-2,-1.1689172E-1,-3.0139064E-2,6.6676855E-2,6.803934E-2,1.8304259E-1,-1.6427757E-1,-4.6933427E-2,-9.763745E-2,3.9806634E-2,-2.2536516E-3,-3.270224E-2,9.880694E-2,2.591008E-2,6.5797963E-3,4.1950464E-2],"categories":[],"categories_nodes":[],"categories_segments":[],"categories_sizes":[],"default_left":[1,1,1,1,1,1,1,0,1,1,1,1,0,0,0,0,1,1,0,1,1,0,0,0,0,0,0,0,0,0,1,0,0],"id":25,"left_children":[1,3,5,7,9,11,13,-1,15,17,19,21,-1,-1,-1,-1,23,25,-1,27,29,-1,-1,-1,-1,-1,-1,-1,-1,-1,31,-1,-1],"loss_changes":[1.8264357E1,6.58483E-1,2.894761E0,1.1335564E-1,1.5318066E-1,1.9898176E-1,4.2581367E-1,0E0,8.839846E-3,2.0390153E-3,3.637328E-2,1.6923785E-2,0E0,0E0,0E0,0E0,4.3690205E-4,2.0394228E-2,0E0,7.125279E-4,5.298946E-3,0E0,0E0,0E0,0E0,0E0,0E0,0E0,0E0,0E0,9.6423505E-4,0E0,0E0],"parents":[2147483647,0,0,1,1,2,2,3,3,4,4,5,5,6,6,8,8,9,9,10,10,11,11,16,16,17,17,19,19,20,20,30,30],"right_children":[2,4,6,8,10,12,14,-1,16,18,20,22,-1,-1,-1,-1,24,26,-1,28,30,-1,-1,-1,-1,-1,-1,-1,-1,-1,32,-1,-1],"split_conditions":[6.20348E-1,3.18276E-1,1.036564E0,2.044015E-1,4.382865E-1,8.336E-1,1.4201765E0,-2.599096E-3,2.52491E-1,2.803185E-1,5.837225E-1,6.40345E-1,3.229907E-3,5.161034E-3,8.7162675E-3,-2.0583249E-3,3.77381E-1,3.642045E-1,-1.1689172E-3,4.540545E-1,6.3278854E-1,6.803934E-4,1.8304258E-3,-1.6427756E-3,-4.6933428E-4,-9.763745E-4,3.9806633E-4,-2.2536517E-5,-3.270224E-4,9.880693E-4,5.919725E-1,6.579796E-5,4.1950462E-4],"split_indices":[0,0,0,0,0,0,0,0,0,1,1,1,0,0,0,0,1,0,0,0,1,0,0,0,0,0,0,0,0,0,0,0,0],"split_type":[0,0,0,0,0,0,0,0,0,0,0,0,0,0,0,0,0,0,0,0,0,0,0,0,0,0,0,0,0,0,0,0,0],"sum_hessian":[2.7E2,1.93E2,7.7E1,1.38E2,5.5E1,4.7E1,3E1,4.5E1,9.3E1,4E1,1.5E1,3E1,1.7E1,2.2E1,8E0,5.1E1,4.2E1,3E0,3.7E1,1E1,5E0,3E0,2.7E1,4.1E1,1E0,2E0,1E0,1E0,9E0,2E0,3E0,2E0,1E0],"tree_param":{"num_deleted":"0","num_feature":"2","num_nodes":"33","size_leaf_vector":"0"}},{"base_weights":[-1.2058126E-2,-1.7476448E-1,3.9277637E-1,-2.1124388E-1,-8.109661E-2,2.0031498E-1,5.900959E-1,-2.57367E-1,-1.8642572E-1,-1.124483E-1,4.310619E-3,1.5104863E-1,2.4941029E-1,4.624257E-1,8.0004424E-1,-2.0381375E-1,-1.6106284E-1,-5.2936092E-2,-1.15753576E-1,-2.9869454E-2,6.625565E-2,5.0830662E-2,1.581727E-1,-1.6267392E-1,-4.6698764E-2,-9.698653E-2,3.9607614E-2,-2.2423863E-3,-3.240792E-2,9.814823E-2,2.5772303E-2,-4.7667965E-2,-1.6431631E-1,6.5359273E-3,4.1740716E-2],"categories":[],"categories_nodes":[],"categories_segments":[],"categories_sizes":[],"default_left":[1,1,1,1,1,1,1,0,1,1,1,1,0,0,0,0,1,1,0,1,1,0,0,1,0,0,0,0,0,0,1,0,0,0,0],"id":26,"left_children":[1,3,5,7,9,11,13,-1,15,17,19,21,-1,-1,-1,-1,23,25,-1,27,29,-1,-1,31,-1,-1,-1,-1,-1,-1,33,-1,-1,-1,-1],"loss_changes":[1.7919182E1,6.457567E-1,2.8439531E0,1.11132145E-1,1.5043369E-1,6.1495543E-2,6.485958E-1,0E0,8.62813E-3,1.9373298E-3,3.5855588E-2,8.381069E-3,0E0,0E0,0E0,0E0,3.260374E-4,2.0147769E-2,0E0,6.987639E-4,5.217204E-3,0E0,0E0,1.0049343E-4,0E0,0E0,0E0,0E0,0E0,0E0,9.558832E-4,0E0,0E0,0E0,0E0],"parents":[2147483647,0,0,1,1,2,2,3,3,4,4,5,5,6,6,8,8,9,9,10,10,11,11,16,16,17,17,19,19,20,20,23,23,30,30],"right_children":[2,4,6,8,10,12,14,-1,16,18,20,22,-1,-1,-1,-1,24,26,-1,28,30,-1,-1,32,-1,-1,-1,-1,-1,-1,34,-1,-1,-1,-1],"split_conditions":[6.20348E-1,3.18276E-1,9.566565E-1,2.044015E-1,4.382865E-1,7.84565E-1,1.262841E0,-2.5736701E-3,2.52491E-1,2.803185E-1,5.837225E-1,6.169085E-1,2.4941028E-3,4.624257E-3,8.000442E-3,-2.0381375E-3,3.77381E-1,3.642045E-1,-1.1575357E-3,4.540545E-1,6.3278854E-1,5.083066E-4,1.581727E-3,2.553305E-1,-4.6698764E-4,-9.698653E-4,3.9607612E-4,-2.2423863E-5,-3.240792E-4,9.814822E-4,5.919725E-1,-4.7667965E-4,-1.643163E-3,6.535927E-5,4.1740714E-4],"split_indices":[0,0,0,0,0,0,0,0,0,1,1,1,0,0,0,0,1,0,0,0,1,0,0,0,0,0,0,0,0,0,0,0,0,0,0],"split_type":[0,0,0,0,0,0,0,0,0,0,0,0,0,0,0,0,0,0,0,0,0,0,0,0,0,0,0,0,0,0,0,0,0,0,0],"sum_hessian":[2.7E2,1.93E2,7.7E1,1.38E2,5.5E1,4E1,3.7E1,4.5E1,9.3E1,4E1,1.5E1,2.2E1,1.8E1,2.5E1,1.2E1,5.1E1,4.2E1,3E0,3.7E1,1E1,5E0,2E0,2E1,4.1E1,1E0,2E0,1E0,1E0,9E0,2E0,3E0,1E0,4E1,2E0,1E0],"tree_param":{"num_deleted":"0","num_feature":"2","num_nodes":"35","size_leaf_vector":"0"}},{"base_weights":[-1.1902872E-2,-1.7595905E-1,3.8198075E-1,-2.2242425E-1,-1.109152E-1,1.9410297E-1,5.8452713E-1,-2.765709E-1,-2.0430827E-1,-1.297592E-1,-1.0118625E-2,1.3221186E-1,2.3337609E-1,4.5797932E-1,7.926592E-1,-1.4511895E-1,-1.0049152E-1,-2.9602267E-2,4.599105E-2,1.4142811E-1,-1.6840369E-2,-6.1006535E-2,-1.4773403E-1,-9.474804E-3,-1.0739386E-1,-2.2311807E-3,-3.2116257E-2,8.224359E-2,6.4923367E-3,5.049179E-2,1.4963943E-1,-5.3621784E-2,3.9409578E-2,-3.5023957E-2,-1.1216411E-1],"categories":[],"categories_nodes":[],"categories_segments":[],"categories_sizes":[],"default_left":[1,1,1,1,1,1,1,0,0,1,1,1,0,0,0,1,1,1,1,1,0,0,0,1,1,0,0,0,0,0,0,0,0,0,0],"id":27,"left_children":[1,3,5,7,9,11,13,-1,-1,15,17,19,-1,-1,-1,21,23,25,27,29,-1,-1,-1,31,33,-1,-1,-1,-1,-1,-1,-1,-1,-1,-1],"loss_changes":[1.7578974E1,5.5560684E-1,2.9308586E0,5.237627E-2,1.5443873E-1,7.3663235E-2,6.378479E-1,0E0,0E0,1.6435385E-2,1.6666532E-2,2.848205E-2,0E0,0E0,0E0,4.4554472E-4,1.594463E-2,6.852597E-4,5.1937615E-3,5.885154E-3,0E0,0E0,0E0,8.587505E-3,4.702151E-3,0E0,0E0,0E0,0E0,0E0,0E0,0E0,0E0,0E0,0E0],"parents":[2147483647,0,0,1,1,2,2,3,3,4,4,5,5,6,6,9,9,10,10,11,11,15,15,16,16,17,17,18,18,19,19,23,23,24,24],"right_children":[2,4,6,8,10,12,14,-1,-1,16,18,20,-1,-1,-1,22,24,26,28,30,-1,-1,-1,32,34,-1,-1,-1,-1,-1,-1,-1,-1,-1,-1],"split_conditions":[5.9464E-1,2.740725E-1,9.566565E-1,1.615695E-1,4.382865E-1,7.60195E-1,1.262841E0,-2.7657088E-3,-2.0430826E-3,3.4309202E-1,5.837225E-1,7.53072E-1,2.3337607E-3,4.579793E-3,7.926592E-3,2.754705E-1,2.803185E-1,4.540545E-1,4.8771453E-1,6.0289E-1,-1.6840368E-4,-6.1006536E-4,-1.4773402E-3,3.642045E-1,3.45374E-1,-2.2311806E-5,-3.2116257E-4,8.224359E-4,6.492336E-5,5.049179E-4,1.4963943E-3,-5.362178E-4,3.9409578E-4,-3.5023957E-4,-1.121641E-3],"split_indices":[0,0,0,0,0,0,0,0,0,0,1,0,0,0,0,0,1,0,0,1,0,0,0,0,0,0,0,0,0,0,0,0,0,0,0],"split_type":[0,0,0,0,0,0,0,0,0,0,0,0,0,0,0,0,0,0,0,0,0,0,0,0,0,0,0,0,0,0,0,0,0,0,0],"sum_hessian":[2.7E2,1.91E2,7.9E1,1.1E2,8.1E1,4.2E1,3.7E1,2.4E1,8.6E1,6.8E1,1.3E1,1.8E1,2.4E1,2.5E1,1.2E1,4.2E1,2.6E1,1E1,3E0,1.7E1,1E0,2E0,4E1,2E0,2.4E1,1E0,9E0,1E0,2E0,2E0,1.5E1,1E0,1E0,2E0,2.2E1],"tree_param":{"num_deleted":"0","num_feature":"2","num_nodes":"35","size_leaf_vector":"0"}},{"base_weights":[-1.1751718E-2,-1.7137216E-1,3.8540363E-1,-2.0715652E-1,-7.949003E-2,2.268028E-1,6.185467E-1,-2.4960174E-1,-1.8127412E-1,-1.1023919E-1,4.272839E-3,1.6904248E-1,3.1367877E-1,5.0119364E-1,8.4972167E-1,-1.98414E-1,-1.5792555E-1,-5.2145325E-2,-1.13453306E-1,-2.9337479E-2,6.5179616E-2,6.625292E-2,1.7768946E-1,-1.5950823E-1,-4.5726597E-2,-9.5668785E-2,3.9212525E-2,-2.2200197E-3,-3.1827223E-2,9.6720956E-2,2.5228709E-2,-4.6408087E-2,-1.6113487E-1,6.449064E-3,4.0783823E-2],"categories":[],"categories_nodes":[],"categories_segments":[],"categories_sizes":[],"default_left":[1,1,1,1,1,1,1,0,1,1,1,1,0,0,0,0,1,1,0,1,1,0,0,1,0,0,0,0,0,0,1,0,0,0,0],"id":28,"left_children":[1,3,5,7,9,11,13,-1,15,17,19,21,-1,-1,-1,-1,23,25,-1,27,29,-1,-1,31,-1,-1,-1,-1,-1,-1,33,-1,-1,-1,-1],"loss_changes":[1.7245852E1,6.2139416E-1,2.7438936E0,1.07456684E-1,1.4470682E-1,1.8783832E-1,4.1512585E-1,0E0,4.682541E-3,1.7394722E-3,3.4665745E-2,1.5780985E-2,0E0,0E0,0E0,0E0,3.4201145E-4,1.9656252E-2,0E0,6.7201443E-4,5.120484E-3,0E0,0E0,2.487898E-4,0E0,0E0,0E0,0E0,0E0,0E0,9.054607E-4,0E0,0E0,0E0,0E0],"parents":[2147483647,0,0,1,1,2,2,3,3,4,4,5,5,6,6,8,8,9,9,10,10,11,11,16,16,17,17,19,19,20,20,23,23,30,30],"right_children":[2,4,6,8,10,12,14,-1,16,18,20,22,-1,-1,-1,-1,24,26,-1,28,30,-1,-1,32,-1,-1,-1,-1,-1,-1,34,-1,-1,-1,-1],"split_conditions":[6.20348E-1,3.18276E-1,1.036564E0,2.09384E-1,4.382865E-1,8.336E-1,1.4201765E0,-2.4960174E-3,2.52491E-1,2.803185E-1,5.837225E-1,6.40345E-1,3.1367876E-3,5.011936E-3,8.497217E-3,-1.98414E-3,3.77381E-1,3.642045E-1,-1.1345331E-3,4.540545E-1,6.3278854E-1,6.6252914E-4,1.7768946E-3,2.553305E-1,-4.5726597E-4,-9.5668784E-4,3.9212525E-4,-2.2200196E-5,-3.182722E-4,9.672095E-4,5.919725E-1,-4.6408086E-4,-1.6113487E-3,6.449064E-5,4.078382E-4],"split_indices":[0,0,0,0,0,0,0,0,0,1,1,1,0,0,0,0,1,0,0,0,1,0,0,0,0,0,0,0,0,0,0,0,0,0,0],"split_type":[0,0,0,0,0,0,0,0,0,0,0,0,0,0,0,0,0,0,0,0,0,0,0,0,0,0,0,0,0,0,0,0,0,0,0],"sum_hessian":[2.7E2,1.93E2,7.7E1,1.38E2,5.5E1,4.7E1,3E1,4.9E1,8.9E1,4E1,1.5E1,3E1,1.7E1,2.2E1,8E0,4.7E1,4.2E1,3E0,3.7E1,1E1,5E0,3E0,2.7E1,4.1E1,1E0,2E0,1E0,1E0,9E0,2E0,3E0,1E0,4E1,2E0,1E0],"tree_param":{"num_deleted":"0","num_feature":"2","num_nodes":"35","size_leaf_vector":"0"}},{"base_weights":[-1.1591864E-2,-1.6969767E-1,3.8179427E-1,-2.0513542E-1,-7.870584E-2,2.2465095E-1,6.127971E-1,-2.5003186E-1,-1.8098253E-1,-1.0917824E-1,4.298797E-3,1.5233351E-1,2.9062116E-1,4.9639964E-1,8.4216857E-1,-1.9782566E-1,-1.564052E-1,-5.1765017E-2,-1.1234862E-1,-2.9075067E-2,6.476775E-2,4.971351E-2,1.5909553E-1,-1.5796256E-1,-4.549797E-2,-9.503099E-2,3.9016455E-2,-2.2089183E-3,-3.154079E-2,9.607615E-2,2.509451E-2,-4.6176046E-2,-1.5956281E-1,6.406069E-3,4.0579915E-2],"categories":[],"categories_nodes":[],"categories_segments":[],"categories_sizes":[],"default_left":[1,1,1,1,1,1,1,0,1,1,1,1,0,0,0,0,1,1,0,1,1,0,0,1,0,0,0,0,0,0,1,0,0,0,0],"id":29,"left_children":[1,3,5,7,9,11,13,-1,15,17,19,21,-1,-1,-1,-1,23,25,-1,27,29,-1,-1,31,-1,-1,-1,-1,-1,-1,33,-1,-1,-1,-1],"loss_changes":[1.6920078E1,6.094165E-1,2.693777E0,1.05476856E-1,1.4211294E-1,1.8472695E-1,4.0959263E-1,0E0,7.971048E-3,1.6471744E-3,3.4172446E-2,9.438753E-3,0E0,0E0,0E0,0E0,2.4020672E-4,1.9418769E-2,0E0,6.590178E-4,5.0416496E-3,0E0,0E0,1.4519691E-4,0E0,0E0,0E0,0E0,0E0,0E0,8.976348E-4,0E0,0E0,0E0,0E0],"parents":[2147483647,0,0,1,1,2,2,3,3,4,4,5,5,6,6,8,8,9,9,10,10,11,11,16,16,17,17,19,19,20,20,23,23,30,30],"right_children":[2,4,6,8,10,12,14,-1,16,18,20,22,-1,-1,-1,-1,24,26,-1,28,30,-1,-1,32,-1,-1,-1,-1,-1,-1,34,-1,-1,-1,-1],"split_conditions":[6.20348E-1,3.18276E-1,1.036564E0,2.044015E-1,4.382865E-1,7.919365E-1,1.4201765E0,-2.5003185E-3,2.52491E-1,2.803185E-1,5.837225E-1,6.169085E-1,2.9062117E-3,4.9639964E-3,8.421686E-3,-1.9782565E-3,3.77381E-1,3.642045E-1,-1.1234862E-3,4.540545E-1,6.3278854E-1,4.971351E-4,1.5909552E-3,2.553305E-1,-4.549797E-4,-9.503099E-4,3.9016455E-4,-2.2089183E-5,-3.1540787E-4,9.607615E-4,5.919725E-1,-4.6176044E-4,-1.5956281E-3,6.406069E-5,4.0579913E-4],"split_indices":[0,0,0,0,0,0,0,0,0,1,1,1,0,0,0,0,1,0,0,0,1,0,0,0,0,0,0,0,0,0,0,0,0,0,0],"split_type":[0,0,0,0,0,0,0,0,0,0,0,0,0,0,0,0,0,0,0,0,0,0,0,0,0,0,0,0,0,0,0,0,0,0,0],"sum_hessian":[2.7E2,1.93E2,7.7E1,1.38E2,5.5E1,4.7E1,3E1,4.5E1,9.3E1,4E1,1.5E1,2.4E1,2.3E1,2.2E1,8E0,5.1E1,4.2E1,3E0,3.7E1,1E1,5E0,2E0,2.2E1,4.1E1,1E0,2E0,1E0,1E0,9E0,2E0,3E0,1E0,4E1,2E0,1E0],"tree_param":{"num_deleted":"0","num_feature":"2","num_nodes":"35","size_leaf_vector":"0"}},{"base_weights":[-1.14361E-2,-1.7085959E-1,3.7132323E-1,-2.1175213E-1,-1.0129845E-1,1.8838517E-1,5.685604E-1,-2.6911932E-1,-1.94607E-1,-1.20977476E-1,-9.72416E-3,1.2829694E-1,2.2651683E-1,4.450423E-1,7.7186126E-1,-1.3606511E-1,-9.749758E-2,-2.8815007E-2,4.520671E-2,1.3747345E-1,-1.8440098E-2,-9.052545E-3,-1.04211085E-1,-2.1978766E-3,-3.1256933E-2,8.086839E-2,6.3633523E-3,4.9382072E-2,1.453985E-1,-5.2400187E-2,3.882137E-2,-3.328511E-2,-1.08931385E-1],"categories":[],"categories_nodes":[],"categories_segments":[],"categories_sizes":[],"default_left":[1,1,1,1,1,1,1,0,0,1,1,1,0,0,0,0,1,1,1,1,0,1,1,0,0,0,0,0,0,0,0,0,0],"id":30,"left_children":[1,3,5,7,9,11,13,-1,-1,15,17,19,-1,-1,-1,-1,21,23,25,27,-1,29,31,-1,-1,-1,-1,-1,-1,-1,-1,-1,-1],"loss_changes":[1.660009E1,5.246997E-1,2.7794666E0,6.565571E-2,1.303764E-1,6.9462776E-2,6.107197E-1,0E0,0E0,7.989347E-3,1.5984107E-2,2.8119177E-2,0E0,0E0,0E0,0E0,1.5088588E-2,6.4626895E-4,5.0262837E-3,5.3862035E-3,0E0,8.25991E-3,4.7439933E-3,0E0,0E0,0E0,0E0,0E0,0E0,0E0,0E0,0E0,0E0],"parents":[2147483647,0,0,1,1,2,2,3,3,4,4,5,5,6,6,9,9,10,10,11,11,16,16,17,17,18,18,19,19,21,21,22,22],"right_children":[2,4,6,8,10,12,14,-1,-1,16,18,20,-1,-1,-1,-1,22,24,26,28,-1,30,32,-1,-1,-1,-1,-1,-1,-1,-1,-1,-1],"split_conditions":[5.9464E-1,2.849915E-1,9.566565E-1,1.615695E-1,4.382865E-1,7.60195E-1,1.262841E0,-2.6911933E-3,-1.94607E-3,3.4309202E-1,5.837225E-1,7.53072E-1,2.2651681E-3,4.450423E-3,7.7186124E-3,-1.3606511E-3,2.803185E-1,4.540545E-1,4.8771453E-1,6.0289E-1,-1.8440097E-4,3.642045E-1,3.45374E-1,-2.1978765E-5,-3.1256932E-4,8.086839E-4,6.3633524E-5,4.938207E-4,1.453985E-3,-5.2400184E-4,3.882137E-4,-3.328511E-4,-1.0893139E-3],"split_indices":[0,0,0,0,0,0,0,0,0,0,1,0,0,0,0,0,1,0,0,1,0,0,0,0,0,0,0,0,0,0,0,0,0],"split_type":[0,0,0,0,0,0,0,0,0,0,0,0,0,0,0,0,0,0,0,0,0,0,0,0,0,0,0,0,0,0,0,0,0],"sum_hessian":[2.7E2,1.91E2,7.9E1,1.19E2,7.2E1,4.2E1,3.7E1,2.4E1,9.5E1,5.9E1,1.3E1,1.8E1,2.4E1,2.5E1,1.2E1,3.3E1,2.6E1,1E1,3E0,1.7E1,1E0,2E0,2.4E1,1E0,9E0,1E0,2E0,2E0,1.5E1,1E0,1E0,2E0,2.2E1],"tree_param":{"num_deleted":"0","num_feature":"2","num_nodes":"33","size_leaf_vector":"0"}},{"base_weights":[-1.1287873E-2,-1.6639997E-1,3.7464848E-1,-2.0115367E-1,-7.7164926E-2,2.2031637E-1,6.015289E-1,-2.4529338E-1,-1.7741345E-1,-1.07058845E-1,4.2610653E-3,1.6404851E-1,3.0498233E-1,4.8682615E-1,8.278216E-1,-1.939768E-1,-1.5325744E-1,-5.101329E-2,-1.1014104E-1,-2.8557273E-2,6.371784E-2,6.44993E-2,1.7241094E-1,-1.5478308E-1,-4.4590145E-2,-9.376923E-2,3.8627267E-2,-2.1868944E-3,-3.0975621E-2,9.468142E-2,2.4565697E-2,-4.4972137E-2,-1.5636453E-1,6.320914E-3,3.9650023E-2],"categories":[],"categories_nodes":[],"categories_segments":[],"categories_sizes":[],"default_left":[1,1,1,1,1,1,1,0,1,1,1,1,0,0,0,0,1,1,0,1,1,0,0,1,0,0,0,0,0,0,1,0,0,0,0],"id":31,"left_children":[1,3,5,7,9,11,13,-1,15,17,19,21,-1,-1,-1,-1,23,25,-1,27,29,-1,-1,31,-1,-1,-1,-1,-1,-1,33,-1,-1,-1,-1],"loss_changes":[1.628532E1,5.861201E-1,2.5986385E0,1.02137566E-1,1.3676816E-1,1.786387E-1,4.0164375E-1,0E0,7.881403E-3,1.4638305E-3,3.3039972E-2,1.4686346E-2,0E0,0E0,0E0,0E0,2.270937E-4,1.8952716E-2,0E0,6.337594E-4,4.9478263E-3,0E0,0E0,2.6154518E-4,0E0,0E0,0E0,0E0,0E0,0E0,8.502167E-4,0E0,0E0,0E0,0E0],"parents":[2147483647,0,0,1,1,2,2,3,3,4,4,5,5,6,6,8,8,9,9,10,10,11,11,16,16,17,17,19,19,20,20,23,23,30,30],"right_children":[2,4,6,8,10,12,14,-1,16,18,20,22,-1,-1,-1,-1,24,26,-1,28,30,-1,-1,32,-1,-1,-1,-1,-1,-1,34,-1,-1,-1,-1],"split_conditions":[6.20348E-1,3.18276E-1,1.036564E0,2.044015E-1,4.382865E-1,8.336E-1,1.4201765E0,-2.4529337E-3,2.52491E-1,2.803185E-1,5.837225E-1,6.40345E-1,3.0498232E-3,4.8682615E-3,8.278216E-3,-1.939768E-3,3.77381E-1,3.642045E-1,-1.1014104E-3,4.540545E-1,6.3278854E-1,6.4499304E-4,1.7241093E-3,2.553305E-1,-4.4590145E-4,-9.376923E-4,3.8627267E-4,-2.1868944E-5,-3.097562E-4,9.468142E-4,5.919725E-1,-4.4972135E-4,-1.5636453E-3,6.320914E-5,3.9650023E-4],"split_indices":[0,0,0,0,0,0,0,0,0,1,1,1,0,0,0,0,1,0,0,0,1,0,0,0,0,0,0,0,0,0,0,0,0,0,0],"split_type":[0,0,0,0,0,0,0,0,0,0,0,0,0,0,0,0,0,0,0,0,0,0,0,0,0,0,0,0,0,0,0,0,0,0,0],"sum_hessian":[2.7E2,1.93E2,7.7E1,1.38E2,5.5E1,4.7E1,3E1,4.5E1,9.3E1,4E1,1.5E1,3E1,1.7E1,2.2E1,8E0,5.1E1,4.2E1,3E0,3.7E1,1E1,5E0,3E0,2.7E1,4.1E1,1E0,2E0,1E0,1E0,9E0,2E0,3E0,1E0,4E1,2E0,1E0],"tree_param":{"num_deleted":"0","num_feature":"2","num_nodes":"35","size_leaf_vector":"0"}},{"base_weights":[-1.11339055E-2,-1.6477427E-1,3.7114E-1,-1.9919142E-1,-7.6403596E-2,1.8883377E-1,5.58072E-1,-2.524882E-1,-1.7952877E-1,-1.0602858E-1,4.2856447E-3,1.4220084E-1,2.3534556E-1,4.546889E-1,8.020757E-1,-1.9561733E-1,-1.5178207E-1,-5.0641015E-2,-1.09068625E-1,-2.830184E-2,6.331509E-2,4.8622865E-2,1.4879765E-1,-1.5328321E-1,-4.4367194E-2,-9.31441E-2,3.8434118E-2,-2.175957E-3,-3.0696834E-2,9.4050206E-2,2.4434984E-2,-4.4747278E-2,-1.5483902E-1,6.278793E-3,3.9451778E-2],"categories":[],"categories_nodes":[],"categories_segments":[],"categories_sizes":[],"default_left":[1,1,1,1,1,1,1,0,1,1,1,1,0,0,0,0,1,1,0,1,1,0,0,1,0,0,0,0,0,0,1,0,0,0,0],"id":32,"left_children":[1,3,5,7,9,11,13,-1,15,17,19,21,-1,-1,-1,-1,23,25,-1,27,29,-1,-1,31,-1,-1,-1,-1,-1,-1,33,-1,-1,-1,-1],"loss_changes":[1.5977716E1,5.7482576E-1,2.5527678E0,1.0033703E-1,1.3431779E-1,5.5461884E-2,5.938873E-1,0E0,1.7181158E-2,1.380235E-3,3.2569874E-2,6.9633126E-3,0E0,0E0,0E0,0E0,1.3279915E-4,1.8723782E-2,0E0,6.214902E-4,4.871793E-3,0E0,0E0,1.6361475E-4,0E0,0E0,0E0,0E0,0E0,0E0,8.428816E-4,0E0,0E0,0E0,0E0],"parents":[2147483647,0,0,1,1,2,2,3,3,4,4,5,5,6,6,8,8,9,9,10,10,11,11,16,16,17,17,19,19,20,20,23,23,30,30],"right_children":[2,4,6,8,10,12,14,-1,16,18,20,22,-1,-1,-1,-1,24,26,-1,28,30,-1,-1,32,-1,-1,-1,-1,-1,-1,34,-1,-1,-1,-1],"split_conditions":[6.20348E-1,3.18276E-1,9.566565E-1,1.89694E-1,4.382865E-1,7.84565E-1,1.4029391E0,-2.5248819E-3,2.52491E-1,2.803185E-1,5.837225E-1,6.169085E-1,2.3534554E-3,4.546889E-3,8.020757E-3,-1.9561732E-3,3.77381E-1,3.642045E-1,-1.0906862E-3,4.540545E-1,6.3278854E-1,4.8622864E-4,1.4879764E-3,2.553305E-1,-4.4367192E-4,-9.3144097E-4,3.8434117E-4,-2.175957E-5,-3.0696832E-4,9.4050204E-4,5.919725E-1,-4.4747276E-4,-1.5483903E-3,6.278793E-5,3.9451776E-4],"split_indices":[0,0,0,0,0,0,0,0,0,1,1,1,0,0,0,0,1,0,0,0,1,0,0,0,0,0,0,0,0,0,0,0,0,0,0],"split_type":[0,0,0,0,0,0,0,0,0,0,0,0,0,0,0,0,0,0,0,0,0,0,0,0,0,0,0,0,0,0,0,0,0,0,0],"sum_hessian":[2.7E2,1.93E2,7.7E1,1.38E2,5.5E1,4E1,3.7E1,3.4E1,1.04E2,4E1,1.5E1,2.2E1,1.8E1,2.8E1,9E0,6.2E1,4.2E1,3E0,3.7E1,1E1,5E0,2E0,2E1,4.1E1,1E0,2E0,1E0,1E0,9E0,2E0,3E0,1E0,4E1,2E0,1E0],"tree_param":{"num_deleted":"0","num_feature":"2","num_nodes":"35","size_leaf_vector":"0"}},{"base_weights":[-1.098786E-2,-1.6316514E-1,3.6764523E-1,-1.972493E-1,-7.564972E-2,2.1604021E-1,5.9052896E-1,-2.5003543E-1,-1.7777535E-1,-1.05008245E-1,4.309606E-3,1.6088574E-1,2.9902622E-1,4.7766933E-1,8.133337E-1,-1.936922E-1,-1.5032099E-1,-5.0271377E-2,-1.0800665E-1,-2.804871E-2,6.2914915E-2,6.340045E-2,1.690663E-1,-1.517979E-1,-4.414536E-2,-9.2523135E-2,3.8241953E-2,-2.1650791E-3,-3.0420566E-2,9.342321E-2,2.4304971E-2,-4.4523537E-2,-1.533284E-1,6.2369504E-3,3.9254516E-2],"categories":[],"categories_nodes":[],"categories_segments":[],"categories_sizes":[],"default_left":[1,1,1,1,1,1,1,0,1,1,1,1,0,0,0,0,1,1,0,1,1,0,0,1,0,0,0,0,0,0,1,0,0,0,0],"id":33,"left_children":[1,3,5,7,9,11,13,-1,15,17,19,21,-1,-1,-1,-1,23,25,-1,27,29,-1,-1,31,-1,-1,-1,-1,-1,-1,33,-1,-1,-1,-1],"loss_changes":[1.5674831E1,5.6375885E-1,2.5080643E0,9.84354E-2,1.3191187E-1,1.7158937E-1,3.9101124E-1,0E0,1.6767502E-2,1.2994111E-3,3.210659E-2,1.4003098E-2,0E0,0E0,0E0,0E0,4.172325E-5,1.849764E-2,0E0,6.09451E-4,4.7968905E-3,0E0,0E0,6.902218E-5,0E0,0E0,0E0,0E0,0E0,0E0,8.3560636E-4,0E0,0E0,0E0,0E0],"parents":[2147483647,0,0,1,1,2,2,3,3,4,4,5,5,6,6,8,8,9,9,10,10,11,11,16,16,17,17,19,19,20,20,23,23,30,30],"right_children":[2,4,6,8,10,12,14,-1,16,18,20,22,-1,-1,-1,-1,24,26,-1,28,30,-1,-1,32,-1,-1,-1,-1,-1,-1,34,-1,-1,-1,-1],"split_conditions":[6.20348E-1,3.18276E-1,1.036564E0,1.89694E-1,4.382865E-1,8.336E-1,1.4201765E0,-2.5003543E-3,2.52491E-1,2.803185E-1,5.837225E-1,6.40345E-1,2.9902621E-3,4.776693E-3,8.133337E-3,-1.9369221E-3,3.77381E-1,3.642045E-1,-1.0800664E-3,4.540545E-1,6.3278854E-1,6.340045E-4,1.6906629E-3,2.553305E-1,-4.414536E-4,-9.252313E-4,3.8241953E-4,-2.165079E-5,-3.0420566E-4,9.342321E-4,5.919725E-1,-4.4523538E-4,-1.533284E-3,6.23695E-5,3.9254516E-4],"split_indices":[0,0,0,0,0,0,0,0,0,1,1,1,0,0,0,0,1,0,0,0,1,0,0,0,0,0,0,0,0,0,0,0,0,0,0],"split_type":[0,0,0,0,0,0,0,0,0,0,0,0,0,0,0,0,0,0,0,0,0,0,0,0,0,0,0,0,0,0,0,0,0,0,0],"sum_hessian":[2.7E2,1.93E2,7.7E1,1.38E2,5.5E1,4.7E1,3E1,3.4E1,1.04E2,4E1,1.5E1,3E1,1.7E1,2.2E1,8E0,6.2E1,4.2E1,3E0,3.7E1,1E1,5E0,3E0,2.7E1,4.1E1,1E0,2E0,1E0,1E0,9E0,2E0,3E0,1E0,4E1,2E0,1E0],"tree_param":{"num_deleted":"0","num_feature":"2","num_nodes":"35","size_leaf_vector":"0"}},{"base_weights":[-1.0838107E-2,-1.6428816E-1,3.5757747E-1,-2.0774963E-1,-1.03452645E-1,1.8116394E-1,5.477934E-1,-2.5935674E-1,-1.9053207E-1,-1.2107295E-1,-9.220266E-3,1.23210005E-1,2.1796237E-1,4.2808756E-1,7.450672E-1,-1.3550088E-1,-9.361095E-2,-2.779786E-2,4.417318E-2,1.3236603E-1,-2.079928E-2,-5.4067623E-2,-1.381545E-1,-8.460164E-3,-1.0008461E-1,-2.1542609E-3,-3.0146793E-2,7.905328E-2,6.1953864E-3,4.787602E-2,1.3993503E-1,-5.0740987E-2,3.805074E-2,-3.0881772E-2,-1.0475956E-1],"categories":[],"categories_nodes":[],"categories_segments":[],"categories_sizes":[],"default_left":[1,1,1,1,1,1,1,0,0,1,1,1,0,0,0,1,1,1,1,1,0,0,0,1,1,0,0,0,0,0,0,0,0,0,0],"id":34,"left_children":[1,3,5,7,9,11,13,-1,-1,15,17,19,-1,-1,-1,21,23,25,27,29,-1,-1,-1,31,33,-1,-1,-1,-1,-1,-1,-1,-1,-1,-1],"loss_changes":[1.5379294E1,4.8615646E-1,2.5852928E0,4.9212933E-2,1.350367E-1,6.484723E-2,5.784092E-1,0E0,0E0,1.4654756E-2,1.5114824E-2,2.7805626E-2,0E0,0E0,0E0,1.822412E-3,1.403667E-2,5.976418E-4,4.8089125E-3,4.811555E-3,0E0,0E0,0E0,7.83029E-3,4.8528314E-3,0E0,0E0,0E0,0E0,0E0,0E0,0E0,0E0,0E0,0E0],"parents":[2147483647,0,0,1,1,2,2,3,3,4,4,5,5,6,6,9,9,10,10,11,11,15,15,16,16,17,17,18,18,19,19,23,23,24,24],"right_children":[2,4,6,8,10,12,14,-1,-1,16,18,20,-1,-1,-1,22,24,26,28,30,-1,-1,-1,32,34,-1,-1,-1,-1,-1,-1,-1,-1,-1,-1],"split_conditions":[5.9464E-1,2.740725E-1,9.566565E-1,1.615695E-1,4.382865E-1,7.60195E-1,1.262841E0,-2.5935674E-3,-1.9053207E-3,3.4309202E-1,5.837225E-1,7.53072E-1,2.1796236E-3,4.2808754E-3,7.4506714E-3,2.754705E-1,2.803185E-1,4.540545E-1,4.8771453E-1,6.0289E-1,-2.079928E-4,-5.4067624E-4,-1.381545E-3,3.642045E-1,3.45374E-1,-2.1542608E-5,-3.0146792E-4,7.905328E-4,6.195386E-5,4.787602E-4,1.3993502E-3,-5.0740986E-4,3.805074E-4,-3.0881772E-4,-1.0475955E-3],"split_indices":[0,0,0,0,0,0,0,0,0,0,1,0,0,0,0,0,1,0,0,1,0,0,0,0,0,0,0,0,0,0,0,0,0,0,0],"split_type":[0,0,0,0,0,0,0,0,0,0,0,0,0,0,0,0,0,0,0,0,0,0,0,0,0,0,0,0,0,0,0,0,0,0,0],"sum_hessian":[2.7E2,1.91E2,7.9E1,1.1E2,8.1E1,4.2E1,3.7E1,2.4E1,8.6E1,6.8E1,1.3E1,1.8E1,2.4E1,2.5E1,1.2E1,4.2E1,2.6E1,1E1,3E0,1.7E1,1E0,2E0,4E1,2E0,2.4E1,1E0,9E0,1E0,2E0,2E0,1.5E1,1E0,1E0,2E0,2.2E1],"tree_param":{"num_deleted":"0","num_feature":"2","num_nodes":"35","size_leaf_vector":"0"}},{"base_weights":[-1.0699443E-2,-1.5999822E-1,3.6077058E-1,-1.934333E-1,-7.415046E-2,2.1188182E-1,5.796703E-1,-2.333368E-1,-1.6911544E-1,-1.0294572E-1,4.27182E-3,1.379932E-1,2.690955E-1,4.6845427E-1,7.994812E-1,-1.8048105E-1,-1.403682E-1,-4.952725E-2,-1.0585962E-1,-2.7549235E-2,6.189845E-2,4.755686E-2,1.4434157E-1,-9.127665E-2,3.7860483E-2,-2.1434873E-3,-2.9875461E-2,9.207042E-2,2.379486E-2,6.1541E-3,3.835857E-2],"categories":[],"categories_nodes":[],"categories_segments":[],"categories_sizes":[],"default_left":[1,1,1,1,1,1,1,0,1,1,1,1,0,0,0,0,0,1,0,1,1,0,0,0,0,0,0,0,1,0,0],"id":35,"left_children":[1,3,5,7,9,11,13,-1,15,17,19,21,-1,-1,-1,-1,-1,23,-1,25,27,-1,-1,-1,-1,-1,-1,-1,29,-1,-1],"loss_changes":[1.5087388E1,5.425005E-1,2.4193316E0,9.5419884E-2,1.2689844E-1,1.6578364E-1,3.833208E-1,0E0,4.071951E-3,1.1389554E-3,3.10451E-2,6.340444E-3,0E0,0E0,0E0,0E0,0E0,1.8049322E-2,0E0,5.860571E-4,4.7071595E-3,0E0,0E0,0E0,0E0,0E0,0E0,0E0,7.9159695E-4,0E0,0E0],"parents":[2147483647,0,0,1,1,2,2,3,3,4,4,5,5,6,6,8,8,9,9,10,10,11,11,17,17,19,19,20,20,28,28],"right_children":[2,4,6,8,10,12,14,-1,16,18,20,22,-1,-1,-1,-1,-1,24,-1,26,28,-1,-1,-1,-1,-1,-1,-1,30,-1,-1],"split_conditions":[6.20348E-1,3.18276E-1,1.036564E0,2.09384E-1,4.382865E-1,7.84565E-1,1.4201765E0,-2.333368E-3,2.7291548E-1,2.803185E-1,5.837225E-1,6.169085E-1,2.690955E-3,4.684543E-3,7.994812E-3,-1.8048104E-3,-1.4036819E-3,3.642045E-1,-1.0585962E-3,4.540545E-1,6.3278854E-1,4.7556858E-4,1.4434156E-3,-9.127665E-4,3.7860483E-4,-2.1434873E-5,-2.987546E-4,9.207042E-4,5.919725E-1,6.1540995E-5,3.835857E-4],"split_indices":[0,0,0,0,0,0,0,0,0,1,1,1,0,0,0,0,0,0,0,0,1,0,0,0,0,0,0,0,0,0,0],"split_type":[0,0,0,0,0,0,0,0,0,0,0,0,0,0,0,0,0,0,0,0,0,0,0,0,0,0,0,0,0,0,0],"sum_hessian":[2.7E2,1.93E2,7.7E1,1.38E2,5.5E1,4.7E1,3E1,4.9E1,8.9E1,4E1,1.5E1,2.2E1,2.5E1,2.2E1,8E0,6E1,2.9E1,3E0,3.7E1,1E1,5E0,2E0,2E1,2E0,1E0,1E0,9E0,2E0,3E0,2E0,1E0],"tree_param":{"num_deleted":"0","num_feature":"2","num_nodes":"31","size_leaf_vector":"0"}},{"base_weights":[-1.0551119E-2,-1.5842962E-1,3.5738453E-1,-1.9153884E-1,-7.3418714E-2,1.8151537E-1,5.3773326E-1,-2.4301699E-1,-1.7255528E-1,-1.019551E-1,4.2944625E-3,1.3669673E-1,2.2621606E-1,4.434164E-1,7.923747E-1,-1.8800896E-1,-1.4590092E-1,-4.9165525E-2,-1.0482887E-1,-2.7302839E-2,6.1507106E-2,4.72398E-2,1.4296693E-1,-4.2445853E-2,-1.4735352E-1,-9.066815E-2,3.767118E-2,-2.1327734E-3,-2.960657E-2,9.1456614E-2,2.36682E-2,-1.4887278E-1,-4.2532012E-2,6.113092E-3,3.816676E-2],"categories":[],"categories_nodes":[],"categories_segments":[],"categories_sizes":[],"default_left":[1,1,1,1,1,1,1,0,1,1,1,1,0,0,0,0,1,1,0,1,1,0,0,0,1,0,0,0,0,0,1,0,0,0,0],"id":36,"left_children":[1,3,5,7,9,11,13,-1,15,17,19,21,-1,-1,-1,-1,23,25,-1,27,29,-1,-1,-1,31,-1,-1,-1,-1,-1,33,-1,-1,-1,-1],"loss_changes":[1.4801669E1,5.3197813E-1,2.37638E0,9.390211E-2,1.2462646E-1,5.1217437E-2,5.6129265E-1,0E0,1.5819788E-2,1.0659397E-3,3.0603563E-2,6.1472356E-3,0E0,0E0,0E0,0E0,2.0742416E-4,1.7831381E-2,0E0,5.746903E-4,4.6349242E-3,0E0,0E0,0E0,3.566146E-4,0E0,0E0,0E0,0E0,0E0,7.8477827E-4,0E0,0E0,0E0,0E0],"parents":[2147483647,0,0,1,1,2,2,3,3,4,4,5,5,6,6,8,8,9,9,10,10,11,11,16,16,17,17,19,19,20,20,24,24,30,30],"right_children":[2,4,6,8,10,12,14,-1,16,18,20,22,-1,-1,-1,-1,24,26,-1,28,30,-1,-1,-1,32,-1,-1,-1,-1,-1,34,-1,-1,-1,-1],"split_conditions":[6.20348E-1,3.18276E-1,9.566565E-1,1.89694E-1,4.382865E-1,7.84565E-1,1.4201765E0,-2.4301698E-3,2.52491E-1,2.803185E-1,5.837225E-1,6.169085E-1,2.2621606E-3,4.4341637E-3,7.9237465E-3,-1.8800896E-3,2.553305E-1,3.642045E-1,-1.0482887E-3,4.540545E-1,6.3278854E-1,4.7239798E-4,1.4296692E-3,-4.2445853E-4,3.77381E-1,-9.0668147E-4,3.7671177E-4,-2.1327733E-5,-2.960657E-4,9.145661E-4,5.919725E-1,-1.4887278E-3,-4.2532012E-4,6.1130915E-5,3.816676E-4],"split_indices":[0,0,0,0,0,0,0,0,0,1,1,1,0,0,0,0,0,0,0,0,1,0,0,0,1,0,0,0,0,0,0,0,0,0,0],"split_type":[0,0,0,0,0,0,0,0,0,0,0,0,0,0,0,0,0,0,0,0,0,0,0,0,0,0,0,0,0,0,0,0,0,0,0],"sum_hessian":[2.7E2,1.93E2,7.7E1,1.38E2,5.5E1,4E1,3.7E1,3.4E1,1.04E2,4E1,1.5E1,2.2E1,1.8E1,2.9E1,8E0,6.2E1,4.2E1,3E0,3.7E1,1E1,5E0,2E0,2E1,1E0,4.1E1,2E0,1E0,1E0,9E0,2E0,3E0,4E1,1E0,2E0,1E0],"tree_param":{"num_deleted":"0","num_feature":"2","num_nodes":"35","size_leaf_vector":"0"}},{"base_weights":[-1.0411167E-2,-1.5952185E-1,3.475846E-1,-1.9774859E-1,-9.449813E-2,1.7592753E-1,5.326811E-1,-2.522939E-1,-1.814842E-1,-1.12906925E-1,-8.853406E-3,1.1971216E-1,2.1161413E-1,4.1574007E-1,7.255878E-1,-1.2712768E-1,-9.081758E-2,-2.7058672E-2,4.3424428E-2,1.2882192E-1,-2.21318E-2,-8.063157E-3,-9.7115405E-2,-2.1221042E-3,-2.9340118E-2,7.774037E-2,6.0723224E-3,4.6924848E-2,1.3612625E-1,-4.9577564E-2,3.7482828E-2,-2.9271295E-2,-1.0174222E-1],"categories":[],"categories_nodes":[],"categories_segments":[],"categories_sizes":[],"default_left":[1,1,1,1,1,1,1,0,0,1,1,1,0,0,0,0,1,1,1,1,0,1,1,0,0,0,0,0,0,0,0,0,0],"id":37,"left_children":[1,3,5,7,9,11,13,-1,-1,15,17,19,-1,-1,-1,-1,21,23,25,27,-1,29,31,-1,-1,-1,-1,-1,-1,-1,-1,-1,-1],"loss_changes":[1.4521695E1,4.5855665E-1,2.4481363E0,6.0670376E-2,1.1409342E-1,6.0931087E-2,5.555754E-1,0E0,0E0,7.3022246E-3,1.4499254E-2,2.7402192E-2,0E0,0E0,0E0,0E0,1.3288617E-2,5.635433E-4,4.655027E-3,4.379958E-3,0E0,7.530751E-3,4.8694313E-3,0E0,0E0,0E0,0E0,0E0,0E0,0E0,0E0,0E0,0E0],"parents":[2147483647,0,0,1,1,2,2,3,3,4,4,5,5,6,6,9,9,10,10,11,11,16,16,17,17,18,18,19,19,21,21,22,22],"right_children":[2,4,6,8,10,12,14,-1,-1,16,18,20,-1,-1,-1,-1,22,24,26,28,-1,30,32,-1,-1,-1,-1,-1,-1,-1,-1,-1,-1],"split_conditions":[5.9464E-1,2.849915E-1,9.566565E-1,1.615695E-1,4.382865E-1,7.60195E-1,1.262841E0,-2.5229391E-3,-1.8148419E-3,3.4309202E-1,5.837225E-1,7.53072E-1,2.1161414E-3,4.1574007E-3,7.255878E-3,-1.2712767E-3,2.803185E-1,4.540545E-1,4.8771453E-1,6.0289E-1,-2.21318E-4,3.642045E-1,3.45374E-1,-2.1221042E-5,-2.934012E-4,7.774037E-4,6.072322E-5,4.6924848E-4,1.3612625E-3,-4.957756E-4,3.7482826E-4,-2.9271294E-4,-1.0174222E-3],"split_indices":[0,0,0,0,0,0,0,0,0,0,1,0,0,0,0,0,1,0,0,1,0,0,0,0,0,0,0,0,0,0,0,0,0],"split_type":[0,0,0,0,0,0,0,0,0,0,0,0,0,0,0,0,0,0,0,0,0,0,0,0,0,0,0,0,0,0,0,0,0],"sum_hessian":[2.7E2,1.91E2,7.9E1,1.19E2,7.2E1,4.2E1,3.7E1,2.4E1,9.5E1,5.9E1,1.3E1,1.8E1,2.4E1,2.5E1,1.2E1,3.3E1,2.6E1,1E1,3E0,1.7E1,1E0,2E0,2.4E1,1E0,9E0,1E0,2E0,2E0,1.5E1,1E0,1E0,2E0,2.2E1],"tree_param":{"num_deleted":"0","num_feature":"2","num_nodes":"33","size_leaf_vector":"0"}},{"base_weights":[-1.027524E-2,-1.5535124E-1,3.5068652E-1,-1.8782155E-1,-7.198113E-2,2.1303073E-1,5.759315E-1,-2.2935222E-1,-1.6549993E-1,-9.9976785E-2,4.256537E-3,1.5301387E-1,2.9540533E-1,4.6152747E-1,7.788817E-1,-1.8095283E-1,-1.4296386E-1,-4.8458315E-2,-1.02768816E-1,-2.6816685E-2,6.051469E-2,6.056851E-2,1.6075556E-1,-4.132621E-2,-1.4439984E-1,-8.9474685E-2,3.72954E-2,-2.1114945E-3,-2.9076055E-2,9.0134E-2,2.317153E-2,-1.4588843E-1,-4.168372E-2,6.0318313E-3,3.729531E-2],"categories":[],"categories_nodes":[],"categories_segments":[],"categories_sizes":[],"default_left":[1,1,1,1,1,1,1,0,1,1,1,1,0,0,0,0,1,1,0,1,1,0,0,0,1,0,0,0,0,0,1,0,0,0,0],"id":38,"left_children":[1,3,5,7,9,11,13,-1,15,17,19,21,-1,-1,-1,-1,23,25,-1,27,29,-1,-1,-1,31,-1,-1,-1,-1,-1,33,-1,-1,-1,-1],"loss_changes":[1.4245905E1,5.1164913E-1,2.2957983E0,9.089947E-2,1.1994764E-1,2.0199203E-1,3.1385708E-1,0E0,6.86574E-3,9.174645E-4,2.9592756E-2,1.2449503E-2,0E0,0E0,0E0,0E0,3.0833483E-4,1.740622E-2,0E0,5.526049E-4,4.5479294E-3,0E0,0E0,0E0,3.4075975E-4,0E0,0E0,0E0,0E0,0E0,7.433505E-4,0E0,0E0,0E0,0E0],"parents":[2147483647,0,0,1,1,2,2,3,3,4,4,5,5,6,6,8,8,9,9,10,10,11,11,16,16,17,17,19,19,20,20,24,24,30,30],"right_children":[2,4,6,8,10,12,14,-1,16,18,20,22,-1,-1,-1,-1,24,26,-1,28,30,-1,-1,-1,32,-1,-1,-1,-1,-1,34,-1,-1,-1,-1],"split_conditions":[6.20348E-1,3.18276E-1,1.1117644E0,2.044015E-1,4.382865E-1,8.336E-1,1.4201765E0,-2.2935222E-3,2.52491E-1,2.803185E-1,5.837225E-1,6.40345E-1,2.9540532E-3,4.6152747E-3,7.788817E-3,-1.8095283E-3,2.553305E-1,3.642045E-1,-1.0276882E-3,4.540545E-1,6.3278854E-1,6.056851E-4,1.6075555E-3,-4.1326208E-4,3.77381E-1,-8.9474686E-4,3.72954E-4,-2.1114945E-5,-2.9076054E-4,9.0134E-4,5.919725E-1,-1.4588843E-3,-4.1683717E-4,6.031831E-5,3.729531E-4],"split_indices":[0,0,0,0,0,0,0,0,0,1,1,1,0,0,0,0,0,0,0,0,1,0,0,0,1,0,0,0,0,0,0,0,0,0,0],"split_type":[0,0,0,0,0,0,0,0,0,0,0,0,0,0,0,0,0,0,0,0,0,0,0,0,0,0,0,0,0,0,0,0,0,0,0],"sum_hessian":[2.7E2,1.93E2,7.7E1,1.38E2,5.5E1,4.9E1,2.8E1,4.5E1,9.3E1,4E1,1.5E1,3E1,1.9E1,2E1,8E0,5.1E1,4.2E1,3E0,3.7E1,1E1,5E0,3E0,2.7E1,1E0,4.1E1,2E0,1E0,1E0,9E0,2E0,3E0,4E1,1E0,2E0,1E0],"tree_param":{"num_deleted":"0","num_feature":"2","num_nodes":"35","size_leaf_vector":"0"}},{"base_weights":[-1.0133177E-2,-1.5383337E-1,3.4740493E-1,-1.8598932E-1,-7.127074E-2,2.0371239E-1,5.5869E-1,-2.3617971E-1,-1.6748786E-1,-9.901482E-2,4.277887E-3,1.5155514E-1,2.822214E-1,4.5094633E-1,7.719583E-1,-1.8250737E-1,-1.4158745E-1,-4.8104174E-2,-1.0176818E-1,-2.6576879E-2,6.013198E-2,6.0114235E-2,1.5920544E-1,-4.1119576E-2,-1.430005E-1,-8.8878185E-2,3.7108928E-2,-2.1009445E-3,-2.881438E-2,8.953311E-2,2.3048133E-2,-1.4446513E-1,-4.1475296E-2,5.9916177E-3,3.710884E-2],"categories":[],"categories_nodes":[],"categories_segments":[],"categories_sizes":[],"default_left":[1,1,1,1,1,1,1,0,1,1,1,1,0,0,0,0,1,1,0,1,1,0,0,0,1,0,0,0,0,0,1,0,0,0,0],"id":39,"left_children":[1,3,5,7,9,11,13,-1,15,17,19,21,-1,-1,-1,-1,23,25,-1,27,29,-1,-1,-1,31,-1,-1,-1,-1,-1,33,-1,-1,-1,-1],"loss_changes":[1.3976962E1,5.017905E-1,2.2542753E0,8.951759E-2,1.178011E-1,1.5377891E-1,3.6421585E-1,0E0,1.50055885E-2,8.517206E-4,2.9171957E-2,1.2115538E-2,0E0,0E0,0E0,0E0,2.2441149E-4,1.7196093E-2,0E0,5.4187607E-4,4.478272E-3,0E0,0E0,0E0,2.5349855E-4,0E0,0E0,0E0,0E0,0E0,7.369644E-4,0E0,0E0,0E0,0E0],"parents":[2147483647,0,0,1,1,2,2,3,3,4,4,5,5,6,6,8,8,9,9,10,10,11,11,16,16,17,17,19,19,20,20,24,24,30,30],"right_children":[2,4,6,8,10,12,14,-1,16,18,20,22,-1,-1,-1,-1,24,26,-1,28,30,-1,-1,-1,32,-1,-1,-1,-1,-1,34,-1,-1,-1,-1],"split_conditions":[6.20348E-1,3.18276E-1,1.036564E0,1.89694E-1,4.382865E-1,8.336E-1,1.4201765E0,-2.361797E-3,2.52491E-1,2.803185E-1,5.837225E-1,6.40345E-1,2.822214E-3,4.5094634E-3,7.719583E-3,-1.8250736E-3,2.553305E-1,3.642045E-1,-1.0176818E-3,4.540545E-1,6.3278854E-1,6.0114235E-4,1.5920544E-3,-4.1119574E-4,3.77381E-1,-8.887818E-4,3.7108926E-4,-2.1009444E-5,-2.8814378E-4,8.953311E-4,5.919725E-1,-1.4446513E-3,-4.1475295E-4,5.9916176E-5,3.710884E-4],"split_indices":[0,0,0,0,0,0,0,0,0,1,1,1,0,0,0,0,0,0,0,0,1,0,0,0,1,0,0,0,0,0,0,0,0,0,0],"split_type":[0,0,0,0,0,0,0,0,0,0,0,0,0,0,0,0,0,0,0,0,0,0,0,0,0,0,0,0,0,0,0,0,0,0,0],"sum_hessian":[2.7E2,1.93E2,7.7E1,1.38E2,5.5E1,4.7E1,3E1,3.4E1,1.04E2,4E1,1.5E1,3E1,1.7E1,2.2E1,8E0,6.2E1,4.2E1,3E0,3.7E1,1E1,5E0,3E0,2.7E1,1E0,4.1E1,2E0,1E0,1E0,9E0,2E0,3E0,4E1,1E0,2E0,1E0],"tree_param":{"num_deleted":"0","num_feature":"2","num_nodes":"35","size_leaf_vector":"0"}},{"base_weights":[-9.993952E-3,-1.5489565E-1,3.3789504E-1,-1.9591857E-1,-9.747563E-2,1.7075926E-1,5.181304E-1,-2.4540277E-1,-1.7944704E-1,-1.1411641E-1,-8.497824E-3,1.282685E-1,2.1768084E-1,4.0399808E-1,7.0653886E-1,-1.2779477E-1,-8.8105805E-2,-2.6339203E-2,4.2690426E-2,4.5807462E-2,1.3344738E-1,-4.8633326E-2,-1.3047014E-1,-7.676353E-3,-9.42331E-2,-2.0904392E-3,-2.8555036E-2,7.645333E-2,5.9516826E-3,-4.843791E-2,3.692338E-2,-2.7712574E-2,-9.88126E-2],"categories":[],"categories_nodes":[],"categories_segments":[],"categories_sizes":[],"default_left":[1,1,1,1,1,1,1,0,0,1,1,1,0,0,0,1,1,1,1,0,0,0,0,1,1,0,0,0,0,0,0,0,0],"id":40,"left_children":[1,3,5,7,9,11,13,-1,-1,15,17,19,-1,-1,-1,21,23,25,27,-1,-1,-1,-1,29,31,-1,-1,-1,-1,-1,-1,-1,-1],"loss_changes":[1.3713367E1,4.3316603E-1,2.3214264E0,4.6437263E-2,1.2044436E-1,5.7808995E-2,5.316925E-1,0E0,0E0,1.3289571E-2,1.3910197E-2,4.5635104E-3,0E0,0E0,0E0,2.7614832E-3,1.2582645E-2,5.3135026E-4,4.5066006E-3,0E0,0E0,0E0,0E0,7.2423546E-3,4.8774183E-3,0E0,0E0,0E0,0E0,0E0,0E0,0E0,0E0],"parents":[2147483647,0,0,1,1,2,2,3,3,4,4,5,5,6,6,9,9,10,10,11,11,15,15,16,16,17,17,18,18,23,23,24,24],"right_children":[2,4,6,8,10,12,14,-1,-1,16,18,20,-1,-1,-1,22,24,26,28,-1,-1,-1,-1,30,32,-1,-1,-1,-1,-1,-1,-1,-1],"split_conditions":[5.9464E-1,2.740725E-1,9.566565E-1,1.615695E-1,4.382865E-1,7.84565E-1,1.262841E0,-2.4540275E-3,-1.7944704E-3,3.4309202E-1,5.837225E-1,6.0289E-1,2.1768084E-3,4.0399805E-3,7.0653884E-3,2.754705E-1,2.803185E-1,4.540545E-1,4.8771453E-1,4.5807462E-4,1.3344737E-3,-4.8633324E-4,-1.3047014E-3,3.642045E-1,3.45374E-1,-2.0904392E-5,-2.8555034E-4,7.6453324E-4,5.9516824E-5,-4.8437907E-4,3.6923378E-4,-2.7712574E-4,-9.88126E-4],"split_indices":[0,0,0,0,0,0,0,0,0,0,1,1,0,0,0,0,1,0,0,0,0,0,0,0,0,0,0,0,0,0,0,0,0],"split_type":[0,0,0,0,0,0,0,0,0,0,0,0,0,0,0,0,0,0,0,0,0,0,0,0,0,0,0,0,0,0,0,0,0],"sum_hessian":[2.7E2,1.91E2,7.9E1,1.1E2,8.1E1,4.2E1,3.7E1,2.4E1,8.6E1,6.8E1,1.3E1,2.4E1,1.8E1,2.5E1,1.2E1,4.2E1,2.6E1,1E1,3E0,2E0,2.2E1,2E0,4E1,2E0,2.4E1,1E0,9E0,1E0,2E0,1E0,1E0,2E0,2.2E1],"tree_param":{"num_deleted":"0","num_feature":"2","num_nodes":"33","size_leaf_vector":"0"}},{"base_weights":[-9.863862E-3,-1.5084736E-1,3.4091386E-1,-1.8239088E-1,-6.9858134E-2,2.069051E-1,5.602078E-1,-2.3168992E-1,-1.6422081E-1,-9.707006E-2,4.238574E-3,1.4865807E-1,2.8684273E-1,4.484134E-1,7.588161E-1,-1.789453E-1,-1.3882864E-1,-4.739759E-2,-9.974427E-2,-2.6103683E-2,5.9159618E-2,5.9100747E-2,1.5614276E-1,-4.0016755E-2,-1.4022851E-1,-8.768929E-2,3.6738753E-2,-1.0086908E-1,-2.9063046E-2,-2.0799935E-3,-2.8298054E-2,8.823655E-2,2.2562012E-2,-1.4166747E-1,-4.061556E-2,5.911986E-3,3.6256045E-2],"categories":[],"categories_nodes":[],"categories_segments":[],"categories_sizes":[],"default_left":[1,1,1,1,1,1,1,0,1,1,1,1,0,0,0,0,1,1,1,1,1,0,0,0,1,0,0,0,0,0,0,0,1,0,0,0,0],"id":41,"left_children":[1,3,5,7,9,11,13,-1,15,17,19,21,-1,-1,-1,-1,23,25,27,29,31,-1,-1,-1,33,-1,-1,-1,-1,-1,-1,-1,35,-1,-1,-1,-1],"loss_changes":[1.3453424E1,4.8286724E-1,2.1763E0,8.646345E-2,1.1332503E-1,1.901648E-1,3.0363274E-1,0E0,1.4415264E-2,7.185638E-4,2.8207138E-2,1.155138E-2,0E0,0E0,0E0,0E0,3.3646822E-4,1.678158E-2,8.955598E-5,5.210261E-4,4.3940824E-3,0E0,0E0,0E0,2.6637316E-4,0E0,0E0,0E0,0E0,0E0,0E0,0E0,6.976789E-4,0E0,0E0,0E0,0E0],"parents":[2147483647,0,0,1,1,2,2,3,3,4,4,5,5,6,6,8,8,9,9,10,10,11,11,16,16,17,17,18,18,19,19,20,20,24,24,32,32],"right_children":[2,4,6,8,10,12,14,-1,16,18,20,22,-1,-1,-1,-1,24,26,28,30,32,-1,-1,-1,34,-1,-1,-1,-1,-1,-1,-1,36,-1,-1,-1,-1],"split_conditions":[6.20348E-1,3.18276E-1,1.1117644E0,1.89694E-1,4.382865E-1,8.336E-1,1.4201765E0,-2.3168991E-3,2.52491E-1,2.803185E-1,5.837225E-1,6.40345E-1,2.8684272E-3,4.484134E-3,7.588161E-3,-1.789453E-3,2.553305E-1,3.642045E-1,4.9347347E-1,4.540545E-1,6.3278854E-1,5.9100747E-4,1.5614275E-3,-4.0016754E-4,3.77381E-1,-8.768929E-4,3.6738752E-4,-1.0086908E-3,-2.9063044E-4,-2.0799935E-5,-2.8298053E-4,8.8236545E-4,5.919725E-1,-1.4166747E-3,-4.0615557E-4,5.911986E-5,3.6256044E-4],"split_indices":[0,0,0,0,0,0,0,0,0,1,1,1,0,0,0,0,0,0,1,0,1,0,0,0,1,0,0,0,0,0,0,0,0,0,0,0,0],"split_type":[0,0,0,0,0,0,0,0,0,0,0,0,0,0,0,0,0,0,0,0,0,0,0,0,0,0,0,0,0,0,0,0,0,0,0,0,0],"sum_hessian":[2.7E2,1.93E2,7.7E1,1.38E2,5.5E1,4.9E1,2.8E1,3.4E1,1.04E2,4E1,1.5E1,3E1,1.9E1,2E1,8E0,6.2E1,4.2E1,3E0,3.7E1,1E1,5E0,3E0,2.7E1,1E0,4.1E1,2E0,1E0,3.6E1,1E0,1E0,9E0,2E0,3E0,4E1,1E0,2E0,1E0],"tree_param":{"num_deleted":"0","num_feature":"2","num_nodes":"37","size_leaf_vector":"0"}},{"base_weights":[-9.728484E-3,-1.4937568E-1,3.3772388E-1,-1.806125E-1,-6.917399E-2,2.0493647E-1,5.55022E-1,-2.1816514E-1,-1.5774313E-1,-9.614348E-2,4.258696E-3,1.4724095E-1,2.8411773E-1,4.4414282E-1,7.520711E-1,-1.6835815E-1,-1.3090111E-1,-4.705099E-2,-9.878102E-2,-2.587027E-2,5.878535E-2,5.8657512E-2,1.5463713E-1,-8.7104686E-2,3.655505E-2,-9.9887654E-2,-2.891773E-2,-2.0695925E-3,-2.8043378E-2,8.7648295E-2,2.2441804E-2,5.8725676E-3,3.6074758E-2],"categories":[],"categories_nodes":[],"categories_segments":[],"categories_sizes":[],"default_left":[1,1,1,1,1,1,1,0,1,1,1,1,0,0,0,0,0,1,1,1,1,0,0,0,0,0,0,0,0,0,1,0,0],"id":42,"left_children":[1,3,5,7,9,11,13,-1,15,17,19,21,-1,-1,-1,-1,-1,23,25,27,29,-1,-1,-1,-1,-1,-1,-1,-1,-1,31,-1,-1],"loss_changes":[1.3199571E1,4.735241E-1,2.1369028E0,8.4959984E-2,1.1131418E-1,1.8658638E-1,2.9958344E-1,0E0,3.6053658E-3,6.610751E-4,2.7806101E-2,1.1239886E-2,0E0,0E0,0E0,0E0,0E0,1.6579041E-2,4.941225E-5,5.108975E-4,4.3269023E-3,0E0,0E0,0E0,0E0,0E0,0E0,0E0,0E0,0E0,6.916991E-4,0E0,0E0],"parents":[2147483647,0,0,1,1,2,2,3,3,4,4,5,5,6,6,8,8,9,9,10,10,11,11,17,17,18,18,19,19,20,20,30,30],"right_children":[2,4,6,8,10,12,14,-1,16,18,20,22,-1,-1,-1,-1,-1,24,26,28,30,-1,-1,-1,-1,-1,-1,-1,-1,-1,32,-1,-1],"split_conditions":[6.20348E-1,3.18276E-1,1.1117644E0,2.09384E-1,4.382865E-1,8.336E-1,1.4201765E0,-2.1816513E-3,2.7291548E-1,2.803185E-1,5.837225E-1,6.40345E-1,2.8411772E-3,4.441428E-3,7.5207106E-3,-1.6835814E-3,-1.3090111E-3,3.642045E-1,4.9347347E-1,4.540545E-1,6.3278854E-1,5.8657513E-4,1.5463713E-3,-8.7104685E-4,3.655505E-4,-9.988765E-4,-2.891773E-4,-2.0695925E-5,-2.8043377E-4,8.764829E-4,5.919725E-1,5.8725676E-5,3.6074757E-4],"split_indices":[0,0,0,0,0,0,0,0,0,1,1,1,0,0,0,0,0,0,1,0,1,0,0,0,0,0,0,0,0,0,0,0,0],"split_type":[0,0,0,0,0,0,0,0,0,0,0,0,0,0,0,0,0,0,0,0,0,0,0,0,0,0,0,0,0,0,0,0,0],"sum_hessian":[2.7E2,1.93E2,7.7E1,1.38E2,5.5E1,4.9E1,2.8E1,4.9E1,8.9E1,4E1,1.5E1,3E1,1.9E1,2E1,8E0,6E1,2.9E1,3E0,3.7E1,1E1,5E0,3E0,2.7E1,2E0,1E0,3.6E1,1E0,1E0,9E0,2E0,3E0,2E0,1E0],"tree_param":{"num_deleted":"0","num_feature":"2","num_nodes":"33","size_leaf_vector":"0"}},{"base_weights":[-9.590744E-3,-1.504045E-1,3.2848215E-1,-1.8647997E-1,-8.904199E-2,1.6572487E-1,5.0401056E-1,-2.3872828E-1,-1.7093115E-1,-1.0643201E-1,-8.1532E-3,1.1247134E-1,1.9956857E-1,4.0927857E-1,7.283323E-1,-1.1991885E-1,-8.550665E-2,-2.5638938E-2,4.197088E-2,1.2159109E-1,-2.584207E-2,-7.299652E-3,-9.1471225E-2,-2.059251E-3,-2.7790982E-2,7.519162E-2,5.833427E-3,4.4717055E-2,1.2840553E-1,-4.732175E-2,3.6372274E-2,-2.6189437E-2,-9.600923E-2],"categories":[],"categories_nodes":[],"categories_segments":[],"categories_sizes":[],"default_left":[1,1,1,1,1,1,1,0,0,1,1,1,0,0,0,0,1,1,1,1,0,1,1,0,0,0,0,0,0,0,0,0,0],"id":43,"left_children":[1,3,5,7,9,11,13,-1,-1,15,17,19,-1,-1,-1,-1,21,23,25,27,-1,29,31,-1,-1,-1,-1,-1,-1,-1,-1,-1,-1],"loss_changes":[1.2950444E1,4.08422E-1,2.2019548E0,5.668211E-2,1.0181826E-1,5.5052996E-2,5.094261E-1,0E0,0E0,6.6791773E-3,1.3346479E-2,2.7108446E-2,0E0,0E0,0E0,0E0,1.19270235E-2,5.0096074E-4,4.3634274E-3,3.6874413E-3,0E0,6.9647264E-3,4.891798E-3,0E0,0E0,0E0,0E0,0E0,0E0,0E0,0E0,0E0,0E0],"parents":[2147483647,0,0,1,1,2,2,3,3,4,4,5,5,6,6,9,9,10,10,11,11,16,16,17,17,18,18,19,19,21,21,22,22],"right_children":[2,4,6,8,10,12,14,-1,-1,16,18,20,-1,-1,-1,-1,22,24,26,28,-1,30,32,-1,-1,-1,-1,-1,-1,-1,-1,-1,-1],"split_conditions":[5.9464E-1,2.849915E-1,9.566565E-1,1.615695E-1,4.382865E-1,7.60195E-1,1.4029391E0,-2.387283E-3,-1.7093114E-3,3.4309202E-1,5.837225E-1,7.53072E-1,1.9956857E-3,4.0927855E-3,7.2833225E-3,-1.1991885E-3,2.803185E-1,4.540545E-1,4.8771453E-1,6.0289E-1,-2.584207E-4,3.642045E-1,3.45374E-1,-2.059251E-5,-2.7790983E-4,7.5191614E-4,5.833427E-5,4.4717055E-4,1.2840552E-3,-4.7321751E-4,3.6372273E-4,-2.6189437E-4,-9.600923E-4],"split_indices":[0,0,0,0,0,0,0,0,0,0,1,0,0,0,0,0,1,0,0,1,0,0,0,0,0,0,0,0,0,0,0,0,0],"split_type":[0,0,0,0,0,0,0,0,0,0,0,0,0,0,0,0,0,0,0,0,0,0,0,0,0,0,0,0,0,0,0,0,0],"sum_hessian":[2.7E2,1.91E2,7.9E1,1.19E2,7.2E1,4.2E1,3.7E1,2.4E1,9.5E1,5.9E1,1.3E1,1.8E1,2.4E1,2.8E1,9E0,3.3E1,2.6E1,1E1,3E0,1.7E1,1E0,2E0,2.4E1,1E0,9E0,1E0,2E0,2E0,1.5E1,1E0,1E0,2E0,2.2E1],"tree_param":{"num_deleted":"0","num_feature":"2","num_nodes":"33","size_leaf_vector":"0"}},{"base_weights":[-9.4626285E-3,-1.4646892E-1,3.3141795E-1,-1.7709926E-1,-6.7824565E-2,2.0769866E-1,5.574174E-1,-2.2519453E-1,-1.5938084E-1,-9.428569E-2,4.221104E-3,1.4437707E-1,2.874837E-1,4.4210854E-1,7.389119E-1,-1.7372662E-1,-1.3465606E-1,-4.6379685E-2,-9.684723E-2,-2.5409687E-2,5.7840705E-2,5.7672992E-2,1.5160704E-1,-3.8120225E-2,-1.3604692E-1,-8.596653E-2,3.619042E-2,-9.793536E-2,-2.8293103E-2,-2.0489544E-3,-2.7540866E-2,8.638531E-2,2.1972075E-2,-1.3745496E-1,-3.915839E-2,5.794525E-3,3.5252362E-2],"categories":[],"categories_nodes":[],"categories_segments":[],"categories_sizes":[],"default_left":[1,1,1,1,1,1,1,0,1,1,1,1,0,0,0,0,1,1,1,1,1,0,0,0,1,0,0,0,0,0,0,0,1,0,0,0,0],"id":44,"left_children":[1,3,5,7,9,11,13,-1,15,17,19,21,-1,-1,-1,-1,23,25,27,29,31,-1,-1,-1,33,-1,-1,-1,-1,-1,-1,-1,35,-1,-1,-1,-1],"loss_changes":[1.2704998E1,4.553151E-1,2.0651436E0,8.256054E-2,1.0715693E-1,2.212038E-1,2.3837471E-1,0E0,1.3849735E-2,5.3948164E-4,2.6890375E-2,1.0689318E-2,0E0,0E0,0E0,0E0,5.8734417E-4,1.6185924E-2,6.377697E-5,4.9121445E-4,4.245069E-3,0E0,0E0,0E0,3.4731627E-4,0E0,0E0,0E0,0E0,0E0,0E0,0E0,6.5509917E-4,0E0,0E0,0E0,0E0],"parents":[2147483647,0,0,1,1,2,2,3,3,4,4,5,5,6,6,8,8,9,9,10,10,11,11,16,16,17,17,18,18,19,19,20,20,24,24,32,32],"right_children":[2,4,6,8,10,12,14,-1,16,18,20,22,-1,-1,-1,-1,24,26,28,30,32,-1,-1,-1,34,-1,-1,-1,-1,-1,-1,-1,36,-1,-1,-1,-1],"split_conditions":[6.20348E-1,3.18276E-1,1.1281035E0,1.89694E-1,4.382865E-1,8.336E-1,1.4201765E0,-2.2519452E-3,2.52491E-1,2.803185E-1,5.837225E-1,6.40345E-1,2.8748368E-3,4.421085E-3,7.389119E-3,-1.7372662E-3,2.553305E-1,3.642045E-1,4.9347347E-1,4.540545E-1,6.3278854E-1,5.767299E-4,1.5160703E-3,-3.8120223E-4,3.77381E-1,-8.596653E-4,3.6190418E-4,-9.793536E-4,-2.8293103E-4,-2.0489544E-5,-2.7540865E-4,8.638531E-4,5.919725E-1,-1.3745496E-3,-3.915839E-4,5.794525E-5,3.525236E-4],"split_indices":[0,0,0,0,0,0,0,0,0,1,1,1,0,0,0,0,0,0,1,0,1,0,0,0,1,0,0,0,0,0,0,0,0,0,0,0,0],"split_type":[0,0,0,0,0,0,0,0,0,0,0,0,0,0,0,0,0,0,0,0,0,0,0,0,0,0,0,0,0,0,0,0,0,0,0,0,0],"sum_hessian":[2.7E2,1.93E2,7.7E1,1.38E2,5.5E1,5.1E1,2.6E1,3.4E1,1.04E2,4E1,1.5E1,3E1,2.1E1,1.8E1,8E0,6.2E1,4.2E1,3E0,3.7E1,1E1,5E0,3E0,2.7E1,1E0,4.1E1,2E0,1E0,3.6E1,1E0,1E0,9E0,2E0,3E0,4E1,1E0,2E0,1E0],"tree_param":{"num_deleted":"0","num_feature":"2","num_nodes":"37","size_leaf_vector":"0"}},{"base_weights":[-9.331617E-3,-1.450399E-1,3.2831886E-1,-1.753724E-1,-6.716027E-2,2.057172E-1,5.5228066E-1,-2.2300692E-1,-1.5782402E-1,-9.3385756E-2,4.2400453E-3,1.4300083E-1,2.847395E-1,4.3792018E-1,7.323438E-1,-1.7201693E-1,-1.3335945E-1,-4.6040326E-2,-9.5911965E-2,-2.5182493E-2,5.747469E-2,5.724044E-2,1.5014514E-1,-3.7929624E-2,-1.347285E-1,-8.539341E-2,3.600946E-2,-9.6982464E-2,-2.8151631E-2,-2.0387024E-3,-2.7293002E-2,8.580941E-2,2.1854982E-2,-1.3611394E-1,-3.8962603E-2,5.7559013E-3,3.507611E-2],"categories":[],"categories_nodes":[],"categories_segments":[],"categories_sizes":[],"default_left":[1,1,1,1,1,1,1,0,1,1,1,1,0,0,0,0,1,1,1,1,1,0,0,0,1,0,0,0,0,0,0,0,1,0,0,0,0],"id":45,"left_children":[1,3,5,7,9,11,13,-1,15,17,19,21,-1,-1,-1,-1,23,25,27,29,31,-1,-1,-1,33,-1,-1,-1,-1,-1,-1,-1,35,-1,-1,-1,-1],"loss_changes":[1.2465373E1,4.4650507E-1,2.0281172E0,8.099556E-2,1.0525638E-1,2.1699357E-1,2.3527908E-1,0E0,1.3518333E-2,4.8798323E-4,2.6508132E-2,1.0399282E-2,0E0,0E0,0E0,0E0,5.0765276E-4,1.5990619E-2,2.6226044E-5,4.8165442E-4,4.180284E-3,0E0,0E0,0E0,2.6911497E-4,0E0,0E0,0E0,0E0,0E0,0E0,0E0,6.494975E-4,0E0,0E0,0E0,0E0],"parents":[2147483647,0,0,1,1,2,2,3,3,4,4,5,5,6,6,8,8,9,9,10,10,11,11,16,16,17,17,18,18,19,19,20,20,24,24,32,32],"right_children":[2,4,6,8,10,12,14,-1,16,18,20,22,-1,-1,-1,-1,24,26,28,30,32,-1,-1,-1,34,-1,-1,-1,-1,-1,-1,-1,36,-1,-1,-1,-1],"split_conditions":[6.20348E-1,3.18276E-1,1.1281035E0,1.89694E-1,4.382865E-1,8.336E-1,1.4201765E0,-2.2300691E-3,2.52491E-1,2.803185E-1,5.837225E-1,6.40345E-1,2.847395E-3,4.3792017E-3,7.323438E-3,-1.7201693E-3,2.553305E-1,3.642045E-1,4.9347347E-1,4.540545E-1,6.3278854E-1,5.724044E-4,1.5014514E-3,-3.7929622E-4,3.77381E-1,-8.5393403E-4,3.600946E-4,-9.698246E-4,-2.8151632E-4,-2.0387024E-5,-2.7293002E-4,8.580941E-4,5.919725E-1,-1.3611394E-3,-3.8962602E-4,5.7559013E-5,3.507611E-4],"split_indices":[0,0,0,0,0,0,0,0,0,1,1,1,0,0,0,0,0,0,1,0,1,0,0,0,1,0,0,0,0,0,0,0,0,0,0,0,0],"split_type":[0,0,0,0,0,0,0,0,0,0,0,0,0,0,0,0,0,0,0,0,0,0,0,0,0,0,0,0,0,0,0,0,0,0,0,0,0],"sum_hessian":[2.7E2,1.93E2,7.7E1,1.38E2,5.5E1,5.1E1,2.6E1,3.4E1,1.04E2,4E1,1.5E1,3E1,2.1E1,1.8E1,8E0,6.2E1,4.2E1,3E0,3.7E1,1E1,5E0,3E0,2.7E1,1E0,4.1E1,2E0,1E0,3.6E1,1E0,1E0,9E0,2E0,3E0,4E1,1E0,2E0,1E0],"tree_param":{"num_deleted":"0","num_feature":"2","num_nodes":"37","size_leaf_vector":"0"}},{"base_weights":[-9.202242E-3,-1.4604594E-1,3.1933767E-1,-1.8476225E-1,-9.185622E-2,1.6078627E-1,4.9034745E-1,-2.3213375E-1,-1.6902605E-1,-1.0757596E-1,-7.819195E-3,1.0905046E-1,1.9367403E-1,3.8154948E-1,6.7022437E-1,-1.2051638E-1,-8.298285E-2,-2.4957335E-2,4.1265488E-2,1.1813344E-1,-2.722159E-2,-4.3528646E-2,-1.2321021E-1,-6.9326065E-3,-8.878957E-2,-2.02851E-3,-2.7047366E-2,7.39547E-2,5.717516E-3,4.3652873E-2,1.2471521E-1,-4.6228334E-2,3.5829425E-2,-2.4715373E-2,-9.3286656E-2],"categories":[],"categories_nodes":[],"categories_segments":[],"categories_sizes":[],"default_left":[1,1,1,1,1,1,1,0,0,1,1,1,0,0,0,1,1,1,1,1,0,0,0,1,1,0,0,0,0,0,0,0,0,0,0],"id":46,"left_children":[1,3,5,7,9,11,13,-1,-1,15,17,19,-1,-1,-1,21,23,25,27,29,-1,-1,-1,